-1.8125692573638774 1.5337819476546088 0.0734435925831835 -0.9633034857561557 0.2944665279672746 1.9619720114521306 -0.9434356150240689 1.514549176993993 -2.4713379038074894 -0.5090421941622661 -0.920734439570488 -0.23231186361057735 2.15295689775556 -1.3346614710503035 0.07637965046908884 -1.2460892768447918 1.2022723069770833 -1.0499415824735638 1.0566101080975887 -0.4196776707001091 2.294842341973994 -2.594487375838538 2.8227563998245877 0.6808889233014082 -1.5776934473934017 -1.976253594174831 0.5333398231597732 -0.29086971184648064 -0.5135196686988416 1.982626076640706 0.22600105045923877 -1.8399049577784556 1.6076708265902941 0.38829193629184766 0.3997320643579655 0.4054765998752779 0.21700177186915662 -0.6334391025179574 0.2466215289930244 -1.9395455159904647 0.1140596326001989 -1.8853414032412437 0.2430804822195193 -0.705480671742736 0.3646276153850318 -0.5029521634238063 -0.22575154576593567 -0.5655377332600707 0.10339501279208403 2.0184084199834635 1.0942482697800835 1.6624343976512204 -0.6274534809878323 1.6211996357703697 1.1781326731748334 -0.3748787457158264 -0.544328982841905 0.28776118084054786 -0.20581999277497792 1.1899878567827236 0.7289268828869242 -0.22204011694314155 -1.622705780574684 0.3125405487074032 -1.160421410161483 0.3135596802489401 0.47199786413373446 0.5778617051661394 0.5054067535213684 -0.6264877741820453 -0.34636932608861365 -2.065941834034334 0.7689362871963529 1.1288663144634183 0.16692353822532358 -0.9672553923745996 0.49199625374895395 -0.5508571738172818 -0.08469407147976996 1.9675683369817802 -0.06267510862659244 -0.851135781687694 0.4265206285270029 -0.2775607406345946 -1.3779445624485926 -0.09519641302805928 0.8336387262969182 -0.7847544465775124 1.0461447796971532 -0.6457839953462127 -1.891579341174108 -0.09733285117799435 -1.3588953398346824 0.49830982553949527 -1.1473205494597498 -0.5365210759444395 -0.9164893776714456 -0.2121479278703703 0.1928444947134805 -0.3226830480799102 -1.7276536031828311 0.7640674648281057 0.44531373561014675 -2.13557604066539 1.0203641916708492 -0.5873966351812684 0.04803703182422271 0.560169466142012 1.4241926984224078 -0.0031911611584522033 -0.29776637255312527 0.23272357640145241 0.6719536366847115 -1.3462815092828897 -0.6017228082847372 -0.16919614344198478 -0.658381218996717 -0.19602429566554647 0.17755223887137567 0.03229390966458949 1.3032582873353218 -0.5394842041320029 0.5299183322568116 0.38279706081632664 1.800622817734638 2.5136179334785504 -0.24501098502848426 0.20872833830205553 -0.30085152403155796 0.1529922148864875 0.030898301056821193 -0.3249539313147046 -0.7784344329977517 -0.3374929613256007 -2.040666447604145 1.419052100432142 -0.7196456271442216 -1.5599333654647982 0.9662293211773547 -0.18229479426411938 2.0260125876010866 -1.0903010146965293 0.4292776405703036 -0.7310662692068065 0.1199651900026294 -0.6747848680473686 -0.1201219618976618 -0.542114078787398 -0.3525966820268916 1.6887839748124271 0.09085806846119297 1.121011126772031 -0.44923289200766187 0.8720485366464987 -1.1421800467436591 -0.8596722804246295 0.9305106625259457 -0.1781883562334867 -2.1584027539637822 -0.28925982802447586 -0.9048442387342084 0.48761618367646264 -0.041886927326935344 0.6493876185380222 0.019122866335729585 -0.977803421181749 -1.9728737504089267 -1.2661494323162326 -1.0009654479647005 -3.049890102734082 0.39472043285636876 -1.9473393386533526 0.5333302155496319 0.3791626839149307 2.0400712534072127 0.30723549864326577 -0.669187288317268 -0.19657562980028678 0.9228606555317904 1.7272488056458695 -0.7750593437704045 1.3667555954894681 1.6938708240914626 -1.2828041380241075 -1.9322434231853358 -2.063496152660625 -0.39554069643045214 1.9256554805049924 -0.5037156248289819 -1.5583051493505118 1.3800122273650504 -2.1693354241976786 -1.2697086335677694 0.9053442857136386 0.7371794001772275 -1.2603602337193622 1.201543233248382 -0.367449704267085 0.8788508259599315 0.8440853892731185 1.351854884361022 1.115808945374064 -1.030206133323576 -0.4442820905224807 0.05742311748991894 -0.5627463283137998 0.004500940718545306 0.17364342433471985 0.9706279269598227 1.8672821001614721 0.11988015038662535 0.6406216888674309 -2.553511172809078 -0.43996602606464813 -0.06295366472691277 -0.06707471874907514 -0.3966589707023076 0.4055849795327721 -0.7491928119387946 -0.6539160438927402 -0.16708116956098432 1.4104367789310093 0.25924815841239723 -0.9894262142608731 -1.5830103485990006 -0.5398198940618739 -0.2649624549276854 -1.1565171204400755 -0.14741531162937935 1.0631233532698952 0.5493182906942168 1.3872704647391998 -0.28624711244845236 1.5736112585703068 0.9629557439440365 0.8070189332682568 -0.5627329335118237 -0.9234004903356303 -0.414295942653107 0.003842057429946427 -2.0965922106125223 -1.8586765218120207 -0.9682149998259636 0.45688242732674 -0.11064819993750152 1.3858289781722382 -1.0827383411506766 -1.0895390502926883 0.5956033021033811 0.08137442294529104 1.6843454678677212 0.3051607790741973 0.5903350746587606 -0.17726042138226156 0.7303787369834072 0.14765616288091624 -0.15037701652329255 0.24372817471437777 -0.2632029760111944 -0.3782853409468413 0.3400014700665998 1.5446919447802403 0.5794858323985858 1.3015233815297615 0.08538349221815927 -0.8269152769993957 0.6805235745569557 -1.0344029142849227 -1.1107161347188976 0.0990918892712459 -2.4114016923770496 -0.795408935686014 -0.5967303546434012 2.016937754402684 0.6507397128289425 -0.2056594655086685 -1.367066014669777 1.7312739261506296 -0.40058607646904 -1.8772679129907213 1.9974681982424844 0.6108148564681822 0.19470454064325696 1.1782625921884513 0.11052261573427137 0.9469864732921682 0.15793395321981177 1.319964607140733 1.3989840658890327 0.04930434433537705 -1.1063706216402025 -0.3764999231607093 2.061808189326962 -1.5464074721704195 0.2769353975042077 -0.6467308579873107 -0.17380975525263168 -0.17601062536898185 0.28985083594533756 0.024213276682155453 1.3298975293814015 -0.2511380628906306 -0.8926699496477175 -0.8866073515175971 0.023848383539175178 -2.15130328643622 0.31701021897101156 0.9365553692122834 -1.7933961182126046 0.40731929349594787 1.4075257961274859 0.6692173268965238 -0.063701855481655 -1.1344191563293928 0.6437659323616497 0.016191707397107218 0.5849725894016501 0.5728332392633374 0.07407827972433789 -0.44816716759496616 0.032589998965482675 -1.096527737013902 0.7454439170587959 1.1121993783471398 -0.23372858427010865 -0.8734153488267407 0.23093367109239443 -0.8054099493619236 0.21676551401402994 0.8356989905146608 -0.6099372647496372 -2.504445662705292 1.2686781832596854 0.2762295489762913 -0.6004446586463922 -1.1809507570275923 -0.2943735179718349 1.3727002579252203 -1.2094838182312782 0.17820633209814207 0.7393087742194754 -0.013645763836683164 -1.1486523532340347 2.496846940766954 1.1120839752223668 0.08537452087090601 0.2891842622539992 0.3597111506116746 -0.5476389614905542 1.1136061152906924 1.4648707032204646 -0.12774632170478115 -0.02029591892057334 0.46763065272835547 -0.6798674510233257 0.019991216091142325 0.8465337283804274 -2.420521012726219 -0.3739678952324741 0.46778288868800705 -1.684743854100344 -0.6171007857321933 3.75926121893453 0.7491208308481322 0.6688205759626645 -0.30769428355682 1.1313628730282357 -0.5035094854465861 -2.5218855951618324 1.2410464159179628 -0.5921858688838868 -0.6896389094690667 0.7765656649786883 0.23822574028882668 0.6835527444754086 1.8663237676606426 1.2747017813034611 -0.09929809252016523 -0.6775713503842096 -0.31110240210752 -0.06326383231208069 0.4099856285318259 -0.20872512342331537 -0.12285960225270218 -0.13620525673403144 -0.1896684978371848 0.959708611656575 0.5861653437719213 0.7210063381945252 0.9820763271483567 -0.2136425710492673 0.9349848127604476 -0.31690664879464264 -0.10062633717949497 0.7887170042479664 0.4330954883310613 -1.2210674824378747 -0.7751933780519654 0.5791533876035637 -1.6219083777535035 -1.4798657903364514 -0.974040016757925 1.1342073017512773 -1.046231555277656 -0.09075378947912573 0.7774878219485569 1.1714261395804988 -0.47101393117038026 -1.7861379067340923 1.9089028578160434 1.5701639059377124 -2.095944813645887 1.2435327307771964 0.7781461973305943 -0.3668510624125078 0.401548446499032 1.209273584532241 1.1465423656944715 0.1636222521976009 0.21306298884713526 0.7190321123031488 -1.8548699083238431 -0.641985336146427 -0.53085696486439 -1.204439188125092 1.5250401198985744 0.6299310742431693 -1.163513694195718 -0.45309997795735335 0.5357969017531915 -0.07326202096796322 -0.1673008098154847 1.1774233643877317 0.0378004295031086 2.071984167935958 -0.5269851927229385 0.5198630803957517 -0.03822429326947754 0.23631974997687963 0.867373299980958 1.741392346363515 0.746085018222688 0.22200349220495533 -0.9804340657215014 -2.1024127035215963 1.3796217774784711 0.8240139240348261 1.3413978753702283 1.17328807714497 -0.23825397181276736 0.9234881032705011 1.1997544337685608 1.2774625608865176 -0.40190825631624016 -0.46959127176270843 -0.7601675524375621 -0.1839736316674413 1.0488550515567812 -0.11821751282631715 -2.198189899293994 -0.06700427042320369 -0.21516706584221806 1.4538297466791907 -1.1715358851473459 0.46552108453826835 0.22267169740146872 1.1522365153907395 0.4711725045853366 0.5916804087646821 -0.46453078076388005 1.050971211110794 2.8362966650553902 -0.19559398561213961 -0.2869303117979753 -0.3313507190218441 -1.9634838344937078 0.5132835833653027 -1.2626086976954594 0.04228802471477914 0.07373046911442394 -0.7806857447099659 -0.3040812787847933 -1.4248387754050795 -0.35615679766896746 -1.7552819856532271 0.6276643945065771 0.9224894178995847 -1.0357537277877367 -2.8483055123576415 -1.1198787081703923 0.4294125044201013 -0.9716439605513707 -0.7140920348297307 -0.4175822255269802 1.1195219709433497 -0.2572036293915377 -0.7885800171272125 -0.5978756261164183 0.4100198302770602 -0.4504491676316093 -0.7739729480805871 -0.2405211891522933 -0.2184032359327285 1.173265208107884 0.49235836665914495 0.007975799744918428 0.9039950440571403 0.17278375115622155 0.609320877253086 0.5039671499129721 0.42805658390950346 -0.05191044366923828 0.7194270354403336 0.057131522750636723 0.3591835561942199 -0.3696313586261605 0.6893779048127813 0.620428041224876 -0.3556362713113166 -1.4694810212918097 -1.9372664661171288 0.037910386854291316 -1.518254218921494 -0.4175988359856289 0.26127634919150794 0.7161494646228986 0.6159606444593418 0.733787023708304 0.91428388056372 0.6798926148651564 0.255447688849669 -0.5083384111797149 0.33203032163805934 -0.11110688842519069 -0.2519834208135833 -1.4566195219665978 0.4096299052431811 1.0623196105602426 -0.577114906745326 0.7187957738285069 -0.39925990544291245 -1.3113893916901094 0.6491216450799303 0.09156565549840939 0.6288719542763547 0.29789385608109376 -0.14228989438606193 -0.5422913762557966 -0.9142899800955556 1.1445140229547124 0.31358384360657227 1.1826346103682317 1.214234743893834 -0.4164463041093362 -1.653940277784069 -2.5507873974726776 0.4424730979591844 0.05212714504982302 -0.46446939056011305 -0.5238518785080368 0.9897258746659662 -1.3255390426151687 -0.19968667460485304 -1.2267270358517706 0.2900181103961009 1.1645743507151853 0.8178408089119535 -0.3095090114253981 0.4965988186309303 0.9435361824170037 -0.0918496909807948 -2.802657912734504 2.1262188419587513 -0.5211610038974646 0.288097511657497 -0.45466325195202295 -1.6761425068725646 -0.35766124757119794 -0.7889602142886702 0.18591073288478183 -0.017105757586016776 2.4540196979298874 1.8327058480246474 -0.9117428539675402 -0.6558732631041264 -0.0005141896869131103 -2.226997217436447 0.6772845991409621 -0.14024922527462538 -0.4084073966783128 -0.8387631285039523 0.48222795485163344 1.2434528312679638 -0.4773938906224788 -0.22034838014433225 -2.463967972490357 0.2374880046620611 -0.3073801129721337 1.1724257751794018 0.8194921324840345 0.422892105897058 -0.9789192753057673 1.2672340006055913 0.14524782603011882 -1.0821721335883765 -2.115049594969743 -1.1269185563840358 -1.084348993684173 0.3721871105625254 0.004105495309600143 -0.2058228695182542 0.9373240951481405 -0.9381172072890536 -1.7041195838548124 0.6035748366519788 -1.03006880479923 0.6416491009897549 -1.5068513962752694 1.7362954874070502 1.3927397413053457 1.0088397237246454 0.3532623409423072 0.6995885102050398 -0.3005304995868456 0.42692663174520545 -0.1453923132786869 -0.3301631617374562 -0.9747058142065727 0.6652546085664737 0.9718870307798524 0.10152949236049015 -1.4398419081698814 1.0141989515499612 1.4261384970217603 -0.2730274485964102 -1.1663407420070127 0.7614508627402563 1.436443798659781 -0.9215666715436556 1.2938157122661875 -2.582345146744392 1.4468871313538474 -0.9371176516183524 0.27580949340207744 -1.8054178742958429 0.024326890408482314 -0.42381680190628285 0.2526448226006977 0.4105828613949966 0.7452346555747286 1.195213129728785 -0.3869386562505852 0.18728936138720623 0.04070372765104812 -1.748755611131415 -0.11896812426626814 0.7050481223975694 0.7872308876808835 -0.14093467485868375 -0.41648835416172586 0.9114346509715427 1.0300665050765687 2.0030132140897523 0.007200438038727555 0.2813741787424244 0.006893727264661404 1.8667782575276095 -0.3932032358532443 2.171443850899987 2.301704977296478 -0.17965422495439662 -0.8737868887566375 0.6410607211660618 -0.8118290882599285 -2.313115260950764 -1.5409372856250305 1.3133402344696725 0.28907352677643783 1.5684643909819427 0.8441562174561307 0.21005663877861344 -0.3387018215517244 1.156055688723958 0.6577774530925438 -0.7767639876813982 -0.6581820141102049 1.8645739152140919 -0.4434923503960011 -1.3831284094072518 -0.11376080644249924 0.46018994468996116 -1.3391471084406015 0.45995554575163455 0.0779941879169736 0.06026495636762812 -0.5504196140790343 0.8745997577143939 -0.2744554462488719 -0.38576911963781463 -0.24054271536652908 -0.36470351683707064 1.1613211436750046 -0.2354874774353996 -0.034800661127323225 -0.6084144479221595 -1.5522582378369034 0.22516354420736287 0.8272139330313247 -0.8639824903730315 0.6832069786739098 -0.6685423688044861 1.0176625858142694 0.7507648271394931 -0.15374127774476673 0.0599716595607963 -1.887856055274968 1.1613026790053005 0.057094147304943235 1.0408301659909225 0.278352287672761 -1.3865305510090213 0.9550521827281163 0.32990253763874816 -0.5479670287607741 0.1469222524752132 0.6029258411733402 0.30698655446655343 1.4166967432839404 -1.0372164126916392 1.1221513405281445 0.11207525855442295 -1.0166649660954725 0.0775502024667845 0.8368359824700399 -0.6952599891981622 -0.5517471904054567 0.2474614628611378 0.3635621434018878 0.7434919179229608 -0.9128972098754154 -0.05910544702081776 -0.762588270474585 0.22421748587221754 -1.770926503695434 0.05208442802888964 0.930011412020704 1.4423087033100566 -0.9362055799380314 -0.9847464118746089 -1.0711534286598008 -0.9782535338236783 -0.6302554632437237 0.7343401795897915 0.7919308707377317 -1.1039025101066915 1.1305766058632443 0.4502759227016266 -0.5553473527822983 1.7518452007934568 -1.8712544089810725 -0.16642768405602026 0.9780980156716976 -0.5800840394323993 -0.6343737048899298 0.3412667313815233 0.03508937790021784 1.092401365423712 0.22807268675780074 -1.4797603266645787 0.4844296658314199 -1.0071174363250497 0.7318603478360601 0.7401761323807043 0.9727286055554841 -2.582252259313577 -1.0153199280347622 1.376905632134737 1.05959208930189 2.1177695333647337 -0.5342833945202521 -1.5214497032690466 0.764997689218666 -0.520477387035395 -0.037615124154832945 0.724014350383403 0.8734142830425101 0.9536615972511716 0.6731091769660025 1.005503664722027 -0.38119134917586917 0.7861589933165606 -1.1309286798485427 0.07747233918527016 0.508927819307366 -0.05080080720356653 -0.5878140341437696 0.43461804108442503 0.9741124032816472 -0.21674587780487545 -0.3201378039904405 -0.5814633774903327 1.4188205642687373 0.40674914740811463 -1.1072998145358066 -1.757033526691253 1.7501768717452433 0.9470193277586819 0.7817691664249978 2.053216888477657 0.6572737520165813 0.6819436708558066 -0.09122415788131323 0.08787390411107485 -0.7389178986742122 -0.9120094044049576 -0.7524511454468329 0.5558946963446376 -0.6188025925342368 0.3877137557221022 1.6650520739238857 -0.15248479676330637 0.8800661874626509 0.6553861392835442 -0.6047360384383342 0.529288854256559 0.5143336010226166 -1.0230456861714041 -0.887186491337259 0.4187513614258418 0.8619561404177798 -0.9563206088421655 -0.6259094458504715 0.19447202964813498 0.4424902327164493 0.5265032703200866 -0.21527394967098085 0.09071070122837875 0.9325915829703669 0.8119994313590606 -2.497025592177214 0.6315454586913404 0.32141839514391374 -0.4255493804211591 -1.078831796619189 0.753443531640497 0.19978970094294185 -0.3605264453805398 -0.013448107721076418 -0.8194763846740869 0.814869052230263 0.44211769397287953 -0.972047958130571 -0.060602716409447414 -2.3498246554855506 1.265445036882725 -0.5732574036485092 0.42912396151239307 1.049783435632134 1.954772700540334 0.07188286818533712 -0.09420929371027945 0.2656164422782373 0.9483181047213198 0.3316450627246391 1.3434010359896404 -0.16793376832402837 -1.1052517822576604 -0.1670774205674689 -0.09657644606012476 -0.8381613114917508 -0.20877973874729133 0.4285800984163767 0.7612102142273615 1.2337202221405708 -0.2072947485171954 -0.20311780907011748 -0.4778734521732312 0.2569402190185441 2.5667554349659687 1.186691462306539 -0.990003730837282 1.4364220914850903 0.6575033968142984 -0.04706018093349117 -0.1236969698152288 1.3309378407499697 -0.6687011012664756 -1.5294755710114882 2.0024794762475486 3.770804716494809 0.6274284894209832 -1.0220294086877717 -0.3547802192728774 0.5082819895257501 0.7717181346197194 1.4603592392920923 1.4223947546817133 -3.078834049697932 0.18274269522079925 1.478713125079517 -0.7855402494463267 1.9007176183161671 -2.261947625611256 -0.09446083851096138 -1.1785602766769 0.46872827650161114 0.4065244199977892 -0.5772121536406756 0.30559892505466885 0.4083048251344084 -0.155487611521527 -2.315271132278753 0.5120723725276196 0.36646056166664853 -1.2521048895263134 -1.8209389909745568 1.5861489855660613 -1.5007891123882544 0.29485605537209875 0.7594331934723559 -1.6098413948522834 -1.0624906342762608 1.806341400432538 1.108016408339252 0.8860872168791104 0.05635830705475274 1.6510980002490498 0.9159012505090023 1.0858687060975272 0.7376860400134982 -1.6124011437283103 -0.829921217552749 -0.6655610731992712 0.3771443411186677 -2.305362278326158 -1.2233547664667423 -0.24856760539385878 -1.7723014177475547 0.9915427853085865 1.6780313211681426 1.1072083564560653 -0.32975746922563554 0.9872647822810035 -0.6304064839195652 -1.2673946600134247 -0.5112046554056162 0.8021472395358478 -0.16793782635258844 -0.9055179593548268 3.124819828362188 -0.5673674655848551 -0.44199481024320225 0.776303461583187 1.8717411349586668 0.002727758461581253 1.2032880004309972 0.7833903739667784 -0.678344208314427 -0.051766881150963756 -0.1323449099650115 0.6022436637701254 -1.1948514274321982 0.7581416665439952 0.37777052124813904 -1.7028085165598243 -1.1783742847567418 0.5151805424754988 -1.0584833226173613 0.6439207587604865 0.8415422234682587 -1.19206195433277 1.4242311927594662 0.38564935304282566 1.2031653234514066 -1.4266183349954549 0.8518927178988784 0.10163059459986122 0.09145307944511856 -0.7523940458270899 1.3932733511181559 1.3365780956366327 -0.8075335154492255 1.3105992363586974 0.6571664387071741 -2.5598841998013198 0.27243006255445523 0.8942735479849215 -0.4537485371801448 0.4332267371074328 2.866392945761241 0.42525617479850136 0.5876768775646753 0.33446140393301727 0.5266616755787992 -0.5728061516653381 0.42318082369636056 0.3292536327220009 -0.4590847891617292 1.0330669853800243 2.269243175249267 -0.6236134219110986 -0.44893009987768473 0.3029538775370872 1.3344837389428317 -1.5919440102424913 -0.010254855760013703 0.13741221762904338 0.7378380212449801 -1.3562919892304963 -0.3785331222556751 0.32204649700926125 -0.1740579997695425 -0.0748448422248797 -0.4172282890696752 0.033205853964206694 -0.015603797114367783 -0.04698591052534326 -0.21290889271844646 0.5491147503435247 0.6475421942714339 0.05111451010026817 1.1097208092006985 0.7961814955874063 0.882983274411229 -1.016913786893703 0.25610426749157483 -0.251341089917237 2.0824661725918507 -0.2540747430299327 0.9363193050859628 0.3380600970653311 -1.8940325097545865 -0.5951915534288618 0.5036579037130701 -0.1173490054780793 0.5094690660425999 0.7370574468554776 0.12963627028675215 0.9905423277498502 1.0970192631703917 -1.5782877103584647 0.4300442462286841 -0.0898466980042154 -0.05882321570731502 -1.0647836409435423 -0.5140578540984194 -0.31402077860371397 -0.760864585163213 -1.1361486912217882 -1.1961429599814444 0.09779608536194212 -0.6360115432101491 -0.9672773941705022 0.6875312716230394 -0.7183738921353034 0.7215609919547427 -0.04221987574562917 0.6738557175072898 -0.974124505842715 2.0126002918721415 -1.4635808785698576 -0.6840115920514015 -0.5145935608614074 -0.07362910292140423 -0.6025115370743945 0.07412278998252313 -0.2058527622407638 -0.1987934542350348 0.873589345931591 0.7583196214589615 0.08060132843929174 -0.9281905223097283 1.2389732675105585 -0.7323961168172058 -1.0616893743097955 0.9929021120705233 -0.016065380821775894 -0.8085290712745761 -0.2660070325123977 -1.9410104956389476 1.034316356118704 0.45212870972522434 -0.019491221995176146 -1.4687086443852186 -0.8070171052703635 -1.3825341430170224 1.7963001095000275 0.7855548751269864 0.10472828416602961 0.07173864299039837 0.5320543260977688 -1.0055994278801053 1.1021992621464964 -0.4768604139706842 0.40931995180533104 1.084069867395993 0.7654339736265636 0.9021058146961487 0.31537282450063003 -0.8100911490466893 1.048610355717631 1.4471180929898044 -0.17606506612761189 -0.6683376117628527 1.123164060799916 0.20794586086389896 -1.1314921769842479 0.7322615543465177 0.9016448493938797 1.318542965135627 -1.2190065507165753 -1.2598833978663557 0.5846056253256233 -1.1719635495538285 -0.612902648457089 2.7660989394601923 1.722796424044471 -1.1363655344723909 -0.13827775225144948 0.3204439535592243 -1.9557553769233236 0.6604018601352513 -1.5453708745437693 0.20051943463583877 -0.017263370293274686 1.6346859140523193 0.5992457567809953 0.46298931800440546 0.023721395515253114 0.2255464085225445 0.1709716741748268 -0.027495759381951326 -0.06123333273858858 -0.566411325340016 -0.669566790444596 0.6016175716021311 0.5036561144001591 -0.6782533381578583 -2.907108419242321 -1.7171232945405206 0.3976259207250205 1.3001077847066744 0.21568962141991438 -0.5928571600003205 -0.2259438676796405 -0.9461151507130969 1.000306133690084 0.39314107525841185 1.3420734344177558 -0.37068874627426235 -0.16641690863143466 -0.30308529716041643 -0.26385055936926416 1.7902862124938461 0.28231478575118996 0.7350122089832393 -0.08541657842808263 1.4152865282620521 0.7709591894021365 -1.4004462080215865 -0.9385662326441506 -1.4805886768199181 0.7329045624360875 0.33410344291738303 0.2789622834783183 0.6336978815557089 -1.2204411667374655 0.5310943349291893 0.1897003038701021 0.4369583002726605 1.2489865536571851 0.7898861152003933 -0.4082413615462058 0.16242124571712055 0.5315651593753778 -0.13456187366109146 -0.8346423399791492 -2.3799432692178026 -1.102365653364222 0.8429010889900277 0.7442239019074108 -0.9222539669536288 -0.2575178683612369 1.2918929241432175 -0.5320772599952465 -0.65018140822704 0.5591611333233981 -0.8910244078575227 -0.7286259693270226 0.6207215386759702 0.27026439270455155 0.7870966425536908 1.4117487733451384 0.4220848106036333 -0.6748275362414304 -1.2004725168121713 -0.5488052240167397 -1.100820720427732 -0.7647261204534913 -1.9120624151159136 0.1625248411999124 -0.20465650129302917 0.22069183990387145 0.12084110181640643 0.13547738465242176 0.6947553844423854 0.20285705754301347 -1.5129394353139507 -0.2537363948189141 0.5446931127542982 0.3243494680529355 1.5642293232535864 0.39141990191230025 0.8719727426832682 -0.4740279011195632 -1.121016632089907 0.0006029031603315107 -1.4814049050117548 0.43900687172139075 0.19149509974733303 0.14284278128520897 0.20955990313625872 0.9742897372937861 0.32863862868414356 -0.7266158426312581 0.12833850182224196 -0.16287739366388712 -1.7663385324905119 0.5269654180975654 1.0713641289906677 -0.4105111741944603 -0.15810895448653567 0.4067000950707907 0.812590153515549 -0.13056945469962195 -0.012571575075391892 -0.12101610475489977 -0.4132727263616437 0.2621553492505491 3.070956206431255 0.5751546869397731 -0.6082164105128034 -0.25128283221712483 -0.19436143468804493 -0.6264082964402061 -0.18589390882941464 -0.6955551009844175 -2.1665808477349744 -0.3390059191660423 1.262654431806202 -0.9258833686670473 -0.4626200835779846 0.08573622168271101 0.004538752912187319 -0.6536208471188679 -0.1438601804187832 -0.7604451957009837 -1.3400895485215318 0.29818733962013405 -0.21608322442190395 0.33757349743774384 -0.19726158498891927 -0.3072719691879184 0.25663479214288837 -0.0020047538268563743 -0.8771766213041963 -0.31089070520404805 -0.5432272780187166 -0.6327556219276743 3.00060592545257 0.17978402137993824 0.48764932196878663 0.9079667456684155 0.4272984014339635 -0.14818243036510453 0.26277576445321604 0.3992683979182344 -1.0897875519716436 0.953335999627465 0.8119641990269707 0.334020493189548 -0.5996646667605334 -0.05893732212560364 0.042296836892807596 -1.3014724938204105 0.31030590731384255 -0.6778064124339457 -1.7751826229853125 0.0440418936120359 1.587802976915391 -0.5603440580435861 0.3499502368668578 0.026071867061620176 0.39574246763904963 0.11735905840236224 -0.2827849198368052 -0.004214045175740926 -1.861969172663381 0.3302040669782506 0.9365439112510391 0.34170360897885566 -0.03999022905125118 0.2899551799534312 0.10490843272130432 -0.025537384675743277 0.4313266064115253 0.6734046219539047 -2.38895864754721 0.2989239693781589 2.3779681084267854 0.9764279618037863 0.2508553917301296 0.8126497558458738 1.179435790639373 0.4098030343778578 1.1143893738203121 -0.026578503960612343 -1.373268957501517 1.023207668998998 3.1501548857632407 -0.16541051537579068 0.6038093997373208 0.0141591126874613 0.11947149734427202 0.40994574271293266 0.4002403837503398 -0.06196678418365227 0.5711638376305217 -0.00020522988246883677 0.6525891276918411 -0.47145939082112237 -0.6450516730732307 -0.4112887134030379 -0.5424168752813895 -0.3679579936178791 -1.0414971545341083 -0.20722319645632822 -0.843970070350779 0.09884847024398627 0.623710960510021 -0.5533818026345444 -0.1895412336602927 -0.8133090089048229 -0.5493327299911172 1.5579478113545664 0.1544802031027363 -0.5606578938731324 0.18745319788642648 -0.6966062728403921 0.6990200999455012 -0.48259378752104026 -0.5804197658991459 -1.8222608101277338 -0.4503871400925419 0.20282959278858953 -0.09768018424951355 0.757895593023133 -0.4890004637767625 0.43622803478101607 -0.4084038061804248 0.09924869518097058 -0.4408840292223327 -1.869727732961643 0.24730299415673587 1.76090952631751 0.7229830728624183 0.2579406852717677 -1.1647360403404974 0.22850240926869864 2.2283761748115816 0.2154090092959211 -1.6225776786964208 0.28471474792214696 1.913382023403864 1.0073082973136642 2.051182281885429 -0.33816059063173803 0.7008277635604446 1.4273489446537413 -0.08588446720432555 0.4800084745670728 -1.9150289247352548 -0.07643310295952414 0.4834974278460188 -0.5076539466036303 0.22930910404308316 -2.227717513718767 -0.268114897999272 0.407709517585146 0.8002801939312963 0.09507232544390591 0.0672993529199843 1.3231648870903836 -1.1188702235651304 0.710059302046661 0.6090095090806583 0.5627049622806539 -2.037522447727918 -0.7053089802112966 -0.6923710273345375 -1.113553710023976 -1.2068052936028288 0.5972175157447377 -1.5342358603240829 1.6312597486062301 -1.3216049252114226 -0.4177922619258882 0.4770094128825502 1.4342840071898144 0.517070536200786 1.4011526336894589 -0.8726852772608187 0.8309574788429563 0.18150707931123727 -0.14561617885944778 0.6945920639236576 -0.7512078234298073 0.3244437263673721 0.6819726997999098 -0.054972174563956804 0.9177757874395217 -1.024810126839688 -0.20644557608881722 -0.6001127815105521 0.8528047874309315 1.455108722796984 -0.07976878973815657 0.07607605455154236 0.20769867926532112 -1.8504583212416634 -0.12774514676177484 -0.59352831541457 -0.8816822892198196 0.2201543517044663 -0.6863190380324691 -0.6498613177285133 -0.24321646839230576 -0.7758392688821593 0.22308226960604946 2.4225297238539216 -1.446174830663167 -0.5415453561428943 0.7244334559176547 -0.2685079746091459 -0.1167797662844032 0.2702186861170416 1.0993523805471592 0.2871353050671475 -3.1149990725545997 -0.5635815401597228 -0.07433443030755268 -0.5048981573353084 0.10648556856013988 0.9635633272175095 -0.27486556017533714 -2.352405730428183 -0.7343763921095225 1.0520668362316568 0.11069867517175642 0.679680944790615 -1.1409015799355213 0.7486445409563061 0.25363943962923835 0.6899264737983521 0.2820121631703355 -0.0592719486756901 0.025735739223009847 0.8433807846833663 -0.6794189055509531 0.19996124074911126 -0.11987800507042613 -0.46476435177432135 -0.263353571745327 -0.31381604640030025 0.4515483630658432 -1.279826493944308 -0.5911949843759313 0.6803460116039775 -1.2326000566376374 0.26499203423289297 -0.5200824374954464 -0.6999961636285131 -0.7644231877213782 0.4621960656277982 -0.6610825719325917 0.026235318937475036 -0.5028295727715635 -0.8754673874141067 0.38858211400110776 0.23649660663737754 0.8448848617068756 -1.0030571580682317 0.3192704662867815 -0.19342101207635493 1.451247969783024 0.15407788051822383 0.28775863534626195 0.6680349893078356 -0.36204807743823403 0.6613511106081906 -0.44928657927755333 -1.82813644910546 -0.9566923765561464 -0.46376062576114785 -0.40693253937323987 -0.9307058371456403 -0.23778345841173215 0.12216242413119123 -0.3793918925400913 1.5354022972600427 0.9211081338797686 0.0576184622988132 0.14371959312996005 -0.00815716617526732 -0.11586251917886227 0.2179416436784504 0.7738281323078546 -0.23785548613012053 -0.49600318897449486 1.2575204011158563 0.38824584935670425 -0.6473188480738349 0.7794221318688046 0.9804456388930072 0.35931699170346904 0.8169452262009635 -0.23650654304421678 0.19676254493923917 1.1732929152850717 1.1546287785769418 -0.3122119089518411 -0.7270249132338026 0.13317747409815278 -0.029704909660080468 0.09918019943646254 -0.396395241233846 -0.28042394040804025 0.3202035532082534 0.06989114529640875 1.8991804434657238 0.3499787097968985 -0.08432468050477211 0.042537669779163234 0.2859360601745541 -0.6483634626403466 0.3222375674787211 -0.8652212344412392 -0.14295104461052577 0.17831949340747347 1.6353226672758139 0.174915260889755 -0.16309409157967336 0.4617564208824776 0.14736760329894605 0.44915709592070563 -0.12402144478421141 0.6491173559000832 -0.16615846604616297 0.3839127482243038 0.42003790123452805 -0.3594038575627602 0.35441680417588384 -0.22242423866854805 0.24786923859679613 0.15635781930727796 -0.27442163989378243 -0.5575452515905553 -0.34650304690980926 0.08117040847704476 1.2398685677312606 0.5634168285556308 -0.3864613307612882 0.7503772562914821 0.5845252285661158 -0.2695927165409098 0.2941177059763269 -0.15073538793103688 -0.15679966713562465 0.21740430402217506 2.428306557174581 -0.22840856817964514 -0.8341183343435044 -0.362012692023562 -0.3912279093937888 0.01652199985020926 -0.1711312845785819 -0.556339116101598 -0.6305585832258778 0.28597902113881607 0.9017008954817834 0.5151272028256723 -0.41587446541965584 -0.12706555216068424 -0.3487092735037371 -0.3311486815791304 -0.005927284454672249 0.15789432063517772 -0.45788748915803446 -0.5317140352382423 0.5934569989040843 -0.6862611386698018 -0.9123836756290435 -0.6391554878909453 -0.053569649544517234 -0.11218631877657186 -0.8692717646133241 0.1736207548487973 -1.7119323035279725 -0.5300599869884821 0.9204285195237657 -0.5398658070971155 -0.3704290956762212 -0.4713769304994912 -0.6680065640929588 -0.16733913919451476 0.23832438712371057 -0.47994574544282914 -1.8297238649155894 0.022197773730282123 0.4584915090957485 -0.2284665136204525 -0.15011233707433427 -0.20721547700732526 -0.16545704233902445 -0.8872531629177054 -0.3497089705048589 0.39762669916249727 -1.312041737646289 -0.33516348689303543 0.9497684110740817 -0.3699175878422526 0.516682226261241 0.8083462222049177 -0.6684226378872536 0.8154579323996541 0.286875046034279 -0.8678058218585315 -0.8689145970027967 0.20579699892456046 1.0636232565725354 0.07468380565120024 -0.02262569926062409 1.1549505894836014 -0.2980764396947641 -0.19285897528778725 -0.08885336885663749 0.606471542214402 -1.1158157920622895 -1.0263308909582591 0.5702913659050833 -1.4149992155723505 0.6021169414089849 -1.559296718088811 -1.6340124903050264 0.7194858687777649 0.27031363215895277 1.1884155723459116 1.0407511227042279 0.3322576094649334 1.5754040644092637 -0.6617818327840909 -0.9490547515553599 0.5809527921026578 0.3193647231651854 -0.2997806447285964 0.14257149050123294 -0.5149422245469378 -1.2638091152974364 -0.21174674427231255 0.5920374462244554 0.4012915909338947 -1.03667708158472 0.6633685368549543 0.16783891730277017 -0.09545637551757029 -0.29459030435026606 -0.6128969945824925 -1.8071894838453928 1.055693818157741 -0.11689174233476946 -1.5300318059068108 0.20703086216745986 0.3226501667627507 0.2731436555294002 0.8417477383190763 0.2893034595894205 -0.8095065062264306 -1.1891457732400343 0.019042696241675282 0.8005161308446649 -1.627068050638222 0.8616507067355336 0.8710181794308495 -0.0037333379592597487 -0.24335394623832593 0.9472956215467933 0.5094062221449173 0.04454607653900799 0.26689642700005306 1.3371652539491992 0.6991364884598393 -1.9280418594195863 0.10527577974090123 1.0428901325754323 0.7151978201763671 -0.7638158568360651 0.09879733433967161 -1.1581463143669277 0.1339285361922375 0.04204088001959911 0.6635636645863827 -0.041864421892883696 -1.5543787290964293 -2.738153037840825 0.4668373518478567 -1.8752003526430803 0.6588935237193587 -0.35148692062128845 -1.5387734843459 0.49079896111046273 0.21300573368891673 0.3530044923705541 -0.6337915179376298 1.6624761821598257 -0.255047425523216 -2.4312734502153788 -0.5411293308674502 1.0193934487134773 -0.7876769692525809 -0.6023384093813173 0.04330910544704271 -0.596363101151678 0.637201825698848 -0.20232114210636717 0.21246869218261105 -0.10704383301615022 -0.15769476989849568 -1.8329951013470172 -1.040593141740358 0.45353018098988074 -0.9820097284480744 -0.6451380261942772 -0.15756050029669172 0.1578787715413678 -0.26067092966980243 0.6889693340881048 -0.1199259461153159 0.8292210429608183 0.042470771091386805 1.5269786764248512 0.233744187178702 2.1661142547594125 0.2973000577849688 0.7520829461388243 -0.34715682461255415 0.06515842115325492 -0.862890107349841 0.46844810848800605 0.26899625384592346 0.4314470886974351 0.07322161104901659 -0.33321702635114103 1.0085975720992035 -0.06899814312843121 0.12179373891110618 -0.03261241926934942 0.13200166908594085 1.2636804805980666 0.11808113626396356 2.411983426141008 -0.37927424098360374 0.7246083237823171 -0.12001715831698587 0.37690786364253437 -0.3849658410139145 -0.2115186226906652 -0.3405257708247565 -0.000982283717409284 0.0890639383885588 0.11309222945229742 -1.3969075945198983 -1.7217793222971713 -0.13678042078284117 0.07429472162963437 -0.34191987155706566 -0.1709333219958647 -1.3314761561443647 0.9023025790113356 -0.2581591226516286 1.520974241775814 -0.29541455484642165 0.1862757611357499 0.6448371593715009 0.279237251468512 -0.12653889790240494 -0.1166404839886495 -0.21177975720912098 -0.5980803109690056 0.0316500704393161 1.201044980640296 0.5974961411986031 0.6841279677639936 -0.037237481052611654 0.5256630348255503 0.05981662732268842 0.2519069642931685 -0.1906496871341896 1.025003256275065 0.19918572569365764 0.9543330730206102 -0.8937595157379723 -0.5409697810374822 -0.057061761224898234 -0.3373452001888988 -0.16524350367165538 -0.1365095315899978 -0.20025486309481377 0.2236772832717958 0.3448394395299876 0.9017694732754216 0.8166025005244251 -0.21089601224908586 0.13144765074926087 0.7374881226372475 -0.13758260258904603 -0.08943563453428682 -0.346886575828725 0.10714827173214882 0.1149441644915321 1.6874156790620156 0.03156091262429007 -1.4512635586408735 -0.8701067488672717 -0.9114940557559389 -1.315093329282749 -0.4687113528461095 -1.1337620020972883 -0.6550204466093691 -0.8138781392531143 1.727955844876875 -0.44646851717357977 -0.6922681739020603 0.16406997258432843 -0.040829736192677824 -0.5671404129321427 -0.20104982194381685 -0.12790075458464686 0.13881468301512162 0.27773883424063983 1.1691395638119462 1.0557779575558615 0.24900989514209948 0.5183617670367748 0.7018175640687779 0.04024691201438012 0.24719343992211434 0.039119006973103894 0.20849337574829213 0.3972609173715992 1.833895407953429 -0.12441979313285968 -0.4917520382490328 0.1038133934610132 -0.16270830622438825 -0.25071061703056846 0.12561891095515432 0.14272562011983708 0.2595552412901771 0.5162404739855946 0.9473259698126307 0.7896475234618755 0.5081899429031099 0.28711874520256503 1.0207118246804177 -0.2825553140423725 0.35817617264593393 -0.4120577960292899 0.23011907699153197 -0.06724937321992802 1.8953192888468775 -0.2968922650964419 -0.5864406750055544 -0.10302916263040181 -0.5753564305314437 0.07891644737553295 0.5622751982185773 -0.37056659852086665 0.10680069643474167 0.6769228890753358 0.7852831225456834 0.271986754330002 -0.205717878468721 0.04578987254519786 0.40594909865924966 0.0377125171323369 0.24304967951923692 -0.33110499835932566 -0.24899619887568508 0.15121084071163055 1.7717983192333913 1.2308039517202742 0.3852856441637782 0.26735139727291973 0.36650673643782455 -0.07919446048034373 0.2057220587981439 0.1432525177366604 0.6439618663306395 0.34328018597199805 0.37120062334476445 0.4388262512094732 0.25629291363852846 -0.6531486542222487 0.41554811179697737 -0.04954038385161786 0.20001686125586712 0.04217156672896622 0.39184796554616735 -0.3373507033425187 2.007419876865037 0.6141651226268591 0.6786852853777829 -1.152749801781172 0.19601993396242007 0.1530393506582537 0.2671269345493888 -0.0024928402134256162 -0.5241679531462118 0.7090978709105074 0.33815213487069057 -1.320724043429624 -1.8924047557530603 -1.355584985219539 -0.00957043213383839 -0.005915231521552 1.0490667355036793 1.1710229672120072 -0.8101038442359413 -0.15303679772829498 -0.014688757526683941 -1.2977034948486168 0.128506688484488 -1.2378549772661713 -1.4530117222684091 -0.824174549973412 0.914961475026723 -0.42179548092389535 -0.6554165986980799 1.106083624302357 1.7311259726269754 -0.4795295837895158 -2.1579072882981376 1.1736819334621704 0.39176907530870714 0.5606987383046581 -0.1844239276453924 1.320807672458733 1.0375108476711017 -0.38411539421647783 0.33760016100620605 -0.23507097007061073 1.169945042315044 0.5389722178384333 -1.2559302078444985 -1.3562932553846996 -0.04908139359300695 0.34527275630325727 -0.7427714531551455 0.5587784929226134 -0.6056427952649435 -0.060776966150136294 0.4093057989790079 1.2855688349256422 -0.6231328781003721 1.0181927153322992 0.8806802700319294 0.04680499976062775 -1.8175571492001774 -0.8098293961482405 0.8752236737755907 0.4091672477330235 -0.13891147690420022 -1.2431243479033944 3.3453851266878623 -0.029489913840594906 -1.7582383945644693 1.3287713152225424 0.514671542238635 -0.8789702746761162 -2.240978781364071 -0.6738136676800356 -1.1259740699221792 0.6283623395853437 -0.10962992456503579 0.39299692079333937 0.7667838818259131 -0.7507124070635558 1.3405652554276726 0.5223257699272403 -1.2366712090364431 -2.0036715805112735 0.4134782978541233 -0.003671351505922771 -0.7398030000635708 0.21838010359638452 -1.1211892677418505 -0.3026187559622085 0.11022284912996719 -1.9178598418671002 -1.0565344348998011 0.438608976008022 0.7754229341445289 0.725762204521464 0.740047432301771 0.01334391010137192 -0.8143738567665108 1.187155690564349 1.9095132384212035 1.7233492891907458 0.012300461289344767 -0.6760946690759703 -1.0114243658130366 -0.8945823983341212 -0.3563587140498031 1.0297365886893775 -0.4759393785505723 -0.6452216418861946 -1.1109803914582552 -1.5606919315925833 -0.591250375511129 0.6469762477347452 -1.273015631540594 0.9564526718540934 0.6445880543678909 -0.35569542036047025 -0.24876186337201833 -0.8120186448092002 0.7264565177190012 -0.18007731478682729 0.32182190868599264 1.0376007055720493 -1.1522386805954516 -0.7151698931541327 0.2774763827183494 0.5818179036548045 0.5741487373074623 1.274436103897284 0.32597536617111544 -0.24639053814921064 2.89814923211388 -0.7559247762044609 -1.921483824021356 0.13408885053301123 -0.3986391840070206 -0.4321915746417912 0.017018546713152227 -0.8666295341643602 -0.6556376841686368 -0.06053131660358744 -0.1601890143407406 0.15496007452007013 0.49380401633912185 -0.4616054255541967 0.048615348345287704 0.05428619144462465 -0.4537548491557434 0.14516152155660006 -0.20668183243495541 -0.33749173150517314 0.9524171361291007 -0.8565304353236206 -1.4363615345336893 -1.2373444759913954 -0.9944198646250196 -1.0179779561499427 -0.4578036183631789 -1.6494691566883732 -0.35849485385862967 -0.8254731159047192 0.5497903576255123 0.14647874795599738 -0.7225512760892907 0.4177959706947727 -0.05426870267334653 -0.23130380680589793 0.08560115874531123 0.4163598963599079 0.06268668973677642 -0.2328186749620901 0.5920577266416557 -0.19935894610716257 0.16402240888534425 -0.48154927722490165 0.29212212734112936 -0.5207335160299038 0.1829742147506684 -0.2794811302842731 -0.30096512344531867 -0.3437916010496617 1.2042267356418126 0.10663885329325117 0.09428348246461504 0.8020967557839078 0.08964254137627979 -0.2920831633155574 -0.042687521930832445 -0.22824836148960215 1.433184917751804 0.47107377388292226 0.746473313617864 0.4927680659849528 0.40645866128130737 0.18351336947795874 0.655504219239097 0.04418180203120419 0.42585350446334164 0.21126017744718972 -0.4233968896186714 -0.46066819663638775 1.1034844096842928 -0.2311691415113072 -0.3810146529385745 -0.1091249217655872 0.29558183634225577 -0.3136365401235147 -0.2790247298295856 0.2107320737399142 0.33856025655138827 0.5843796060710293 0.4474918289427309 -0.13559295489914297 0.1317602602735612 0.050880173853684034 -0.06568804743804146 0.2667495411972957 0.24941460956393452 -0.6796384271369919 0.3238288165674213 0.1065372165197667 0.18732289143591221 0.13228216514913665 -1.0844059477721726 -1.287531492560871 -0.3173571188665275 -1.0366448967914639 -0.5808859460159299 -0.835426615655251 -0.1486524444148636 -1.0315798534172795 0.07889992965983501 0.3300686767443526 -0.11453048092327628 0.3212965349819786 -0.3669134806108935 0.4546347161435263 0.031109546961106512 -0.4468645333436488 0.38269258597288863 0.3811221222188598 0.47855831314002845 0.06477122098857874 0.20555425813221614 -0.5477954922295497 0.10583353879564038 -0.35209694204063485 -0.2102839792866555 -0.19659756345434648 -0.35416482149757617 -0.3643926745691339 0.7665029873002857 -0.12832331986188067 -0.005233434027869389 -0.6018068741844644 -0.26485049977451447 0.1298895864761939 -0.2365622228094837 -1.2421400558470643 0.40820552953183553 -0.4237153349516098 0.7564278326877713 -1.019870075032314 -0.8408591038976954 -0.46042401419580187 -1.014029998094018 0.03723211214265686 -0.15573170055966834 0.16539675727671424 0.4628568033459667 -0.15646270081733923 -0.5578975984408352 -0.573785012078808 -0.4429856096065478 1.233965448328744 -0.019923982029952086 0.19111154545952 0.9584262202051043 -0.870057391975563 -0.14031166939596768 0.6163503360911232 0.49047003798003247 0.3712193928926562 0.07461958754032331 -1.9881486776942112 -0.32452614931725904 0.574454968948294 0.037974337277791946 0.21743466932694422 -0.09809803769360795 0.17217612154402043 0.8262618241744084 -0.44701243652188377 -2.105837369706067 -0.57689668812148 -0.0530806912709392 -0.1317758181644011 0.1603576732280432 -0.8123991528607226 -0.03493072296024674 -0.07240796446063658 0.5641403591505856 -0.48176293174021284 -0.9602773375940898 -0.20224194337757803 -0.22508307193539664 0.36841455870455886 1.7454326939745803 0.2256588506250978 0.8799264638087182 0.43594247706095823 0.2675395054768851 0.4080384421483139 1.493049123116327 -1.2084830338731998 -0.6707618350153643 -0.5604597705102354 -0.399466528438697 -1.1681839093930293 -0.014428780287596843 -0.46319364106374517 0.7822725896494399 -1.8208535359841513 -0.5838517161620062 0.4275725000334933 -1.2851811552693426 -0.0256517704380964 -1.2547190205485161 0.5548821819116219 -0.8742833939908891 -0.2925800125139045 -1.277553794810829 0.5314684420616722 -1.1720183828338975 -0.7429843283552535 1.3464409777325639 -0.19321567678653453 0.3192350404848383 -1.3596287591074299 0.6951636588310346 2.2838512198290495 0.9438550722068665 -1.3274564055080385 -1.301349900176717 0.9276508505700977 0.7392117251018598 1.1450429367722297 -0.15945043577508325 -0.2351925754570092 -0.7789322937613051 0.21953663560391642 -0.8957979965371767 0.031754564954832865 0.30357362662280785 0.7029401899026336 0.7322156553641973 0.9994902864852733 -0.047996047275502156 0.012108591024365033 0.9939936118285558 0.06756575780616929 1.2408208751643124 1.1728773464356745 1.4348410009998385 0.0057665438828858615 0.6229950636128748 0.6273835527649051 0.6051623158304578 -0.2308532070532156 1.3419192742585517 -0.5470854929041209 -0.6924791859122694 -1.890932300645237 1.6629388120326256 0.6846175493164598 0.5254838704183721 0.09899067473535028 -2.4681452155581933 -0.20565298354451658 0.15536394233643486 0.3859271867946694 1.3719529627783678 -0.8917961105418721 -0.17089954004514565 -0.825917867301072 -1.0494414574241537 0.32502722535581013 -1.3759118395859562 -0.06862262010573965 -0.3080632502656917 -0.5344296269891251 0.30494868566974365 -0.18540275144529594 -0.5286217391416254 0.6322372057988436 0.8057440033645071 0.2369820880567039 0.8100153642692023 -0.6148477282431534 0.6066419023028412 1.5899033985316604 -0.49568886411799956 -0.5794837333841909 0.6417851246725305 0.33972811427791655 -0.2986700723444703 0.5129252116191789 -0.8803123201037045 -0.03953345339293744 0.7955925891625095 0.13191237485029478 -0.6609533943234162 0.35041642986302524 -0.13895278398995298 -0.1437057953169975 0.08266309525532799 -0.6177472543680437 0.3118529868928793 -0.7752689892660042 0.7995826595279738 -0.10629820824655295 1.0076540949108457 0.6545198310406233 -1.4545714045799905 0.2618747131803279 -0.41899103437279944 0.2821448458081504 0.19713467945733817 0.17017775989880835 0.2954219132471887 0.19633542066352633 1.0795797518028407 -0.5188364108884311 0.20194055960485655 0.21144267209647563 0.21422573061580186 -0.5407394287319107 0.1465182546852978 -0.11215135202937322 -0.2261760674026665 0.3258849414292515 0.27425593080411803 0.39077301237741363 0.08369016306253671 0.5042309074180745 0.3281422537550074 0.8717801709497534 0.30579372001189903 0.021838435803627373 0.8117766824676851 0.2713494621741574 1.4067009948799698 0.2710594515490505 -0.34690562467784636 -0.3367438783972245 -0.2683534783571152 -0.43075992216221515 -0.26432949111152065 -0.6249517409851201 0.5420663718041343 0.0004056757156888604 0.37310278173068673 -0.6039835184634805 -0.3928551777475166 -0.2328408059501882 -0.14169369300534668 -0.29592775165094204 -0.27389987319498005 -0.009490779422512774 -0.8557572899494338 0.12144979484511632 1.4698886226297498 0.880979937237073 0.3663210773832111 0.6603427780898982 0.7650176566775819 0.2066686337877288 0.5371726055814076 -0.19000431205907578 1.298205269918205 0.4359848498135191 -0.024385175037443564 0.16413181439714358 -0.20435391337239794 -0.17452645532398653 -0.24364085291136642 -0.7646142686941909 -0.6283051331230814 -1.2002692171167448 0.4461523238100979 -0.5563376794601153 1.8335314394562503 0.4995724873535404 -1.09303813754994 -0.5377396685442261 -0.2144914412738757 -1.0739131612314905 -0.3969668069011072 -0.5963896764957423 -0.19637905558432528 -0.11073049916245353 0.612212298217206 -0.42360731053373474 0.007346978954685425 -0.2009643588485091 -0.7588002409078275 -0.49314309097471726 -0.5980722549766403 -0.6151112451463767 -0.765151907891058 -0.6741813649505768 0.9406470337318297 0.38215216301634714 -0.5912650773176231 -0.6148635386317388 0.6089520883674057 -0.3875946003931544 0.0046877095125100665 -0.7898411477319527 0.3806215484092084 0.12460947119853015 0.19281402332812791 -0.02136307359483364 0.03728632223592223 0.7058810893714796 0.08965283732224733 -0.007808146363133487 0.04823826778014554 -0.3153979215870325 0.7483803209715048 0.46076585937782294 0.8429924820729576 -0.11451386903270583 0.534862460892065 0.3651391036118188 0.1259474417714375 -0.5950011846760501 0.7005256295075468 -0.4557992546103731 -0.4087328546033472 0.14150242627635004 0.21979715157913945 0.6170802076789182 -0.7886135810353937 -0.7924396966034879 -0.5730039775951873 0.1443575146997977 -0.5663503913060486 -0.6130581542785424 -0.7389008578418954 -0.31313010912818495 0.7153484896724905 0.47477968226067957 -1.1105492808125146 -0.47437744854100733 0.273899205667645 -1.182682824555881 -0.6392175522652168 -1.6303438683831495 -0.25109274232658263 -0.46208283491865326 -0.15848278819505987 0.5485825591797242 -0.24704852322582882 0.43317148327112703 -1.2204965209618972 0.3443241062771848 0.8597984187204276 -0.2752154876555565 -0.2881937383402374 0.1571971656454401 -1.2905481609279013 -0.4944962700831577 -1.5325467888510829 -1.1171288172075833 -1.0416390755916982 0.32966047189732395 1.7104404183306743 -0.2507541844637294 -0.16581698904627376 1.3698382432517797 -0.09967528939438786 -0.42127312712997644 -1.2706633723823926 -1.7914250896631996 -0.027601474276166285 0.07593923089800718 1.0877307561648144 -2.244815753114599 -2.0718840456467595 0.3763477375953779 -2.1140876016202266 -1.3245982724080407 -0.06034821507203934 -0.26856108723177546 0.10699245580776932 1.1739894724631237 0.9941914438570228 -0.48983810094298685 0.10164080817116683 0.9976553002457521 -0.09167222219177916 1.240077880718563 -1.154351586613727 0.5502289387089981 0.29114095234528015 -1.4378493498890828 0.13779570923771922 0.5511298641959355 -0.12410516439441278 -0.7024761111616015 -0.7166144821646917 0.24398572949439473 0.7411287841565145 -0.4027663389088486 -1.3258511251109142 -0.5616844983534491 -0.6821262316517794 -0.2607831529796603 1.0596357465569806 -0.8105594781301012 0.6452773558224288 0.05877548980679045 -0.4217744016441261 0.9454817923772418 -1.6611558515645202 -0.6587717990173735 1.405800779805476 -0.28345335168223224 0.44202569173686374 -0.45887495699992764 -0.0157066473432969 0.4054230477217747 -0.3856071848941403 0.2706756676210393 -1.4523952932180622 -2.3479240905313286 0.191588119426532 -0.5341849217222121 0.361752867408574 0.34566679096660835 -1.9691728999912403 1.3523076155667153 1.1108224810340848 0.9321458769613393 0.364287498997205 0.2742511199563107 0.1469898893118692 -1.581780604048735 -0.3160928541862123 0.30205978016001345 1.0024913371759332 -0.16703695583348527 -0.2687954356229329 0.7213178278730752 1.2840111775895011 -1.5472112131036377 -0.4716529694819655 0.7090061870940295 0.7293940210848608 -0.1995072896766732 1.6372336220099035 0.7714962958348369 -3.6495756838102946 0.9025483717872624 0.09192371119024624 -0.3134013809886721 -0.1945587189162003 -0.9013589964074943 -0.056196059377390854 -0.19707325675749512 1.743308312597971 0.08506714754344459 -0.9442355626652076 -0.8007103254720894 0.5711233144152282 1.0147070923004176 0.8520305187919979 0.343245701806937 0.9467470895416618 0.4780859319493668 1.3008460118123057 -0.5315383155620786 0.7815414669710584 -0.3661606230272007 -0.1659499327107252 -0.5149322680200914 -0.5080195549217404 -0.8854747059759916 -0.5033532787831706 -0.4385032911101026 0.617479877097203 -0.7160904344698313 0.11998007887873606 0.07826146673875013 0.3625211696534939 0.4806740135954144 0.22543631038668802 0.1916993596390968 0.18792474505499895 0.8261259025505847 0.2152107110265036 0.4047651908938089 -0.7692205964292075 0.046335370479096506 0.23789464203663285 0.05457190579118995 -0.345524621172765 -0.3802214611838701 0.3688822468662929 0.07612458858952485 1.1223608465467927 0.14876326857342506 -0.20321566305828526 -0.035952513186426116 -0.32084953328906696 -0.7940441611696136 -0.3470606264900012 -0.9969065976318535 -0.48186502046605045 -0.4223354265615121 -0.17967197919062033 -0.23244638147025962 -0.6032504088395345 -0.4590631354901337 -0.7296096742861543 -0.003704134905037865 0.24884161925479345 -0.11584616760379748 0.21162581637508948 0.13831652276524928 0.18261508621107844 0.39451188689299205 0.9845686840291775 0.6201714312782923 0.6945862366512718 0.5390082079129765 0.875441702801657 0.49985877312080046 0.9923022248415906 0.44958065993080176 0.7252052097995442 1.0697396547409788 -0.008268119566255089 -0.46902694452529536 -0.7715112666428855 -0.2388460635474077 -0.49892967303732777 -1.065880527465669 -0.19255486298442417 -0.3307851001580151 0.11911050037408316 -0.761308896579608 0.11262991659527773 -0.2568295800002313 0.2851555545812631 -0.8023824093555841 -0.3653659515047752 -0.024145600534008906 0.5746332885650959 -0.3379371736166575 0.2724425970446958 -1.143823057293516 0.17785078232517035 -0.009779103076055793 0.16071414121397756 -0.18563598523869065 -0.7701462402318286 -0.646595311043519 -0.045497305235292544 -0.8046377716888837 0.12883168096947484 0.6999976848692797 0.21706013775047206 0.3554311618011816 0.47830484102056703 -0.03247120425204842 -0.5403846035018499 -0.79062395661212 -0.31334603800794825 0.0017554155700807699 -0.19555834265766361 -0.3898384403323208 -0.612219391783015 -0.5319160959251404 0.004895278374991526 -0.24771890818811929 -0.3495415475833322 -1.4055747675723365 1.1591788266375294 -0.05670532328388459 -0.055777201491902836 0.5585263429679107 0.16946539343239544 0.27589288815915186 -0.11041584018960655 0.2520724302403092 -0.004774082618318097 -1.178554020335092 0.17781225851836285 -0.26511962280861917 0.8684167741614243 0.14619185093900644 -0.4151522099987087 -0.07847857105173114 0.23152847120552836 -0.28938490844789966 -0.1705324594500925 -0.029561458986992754 -0.2711169595202935 -0.0006958534389586965 0.2103000105131127 0.9091535559611951 -1.409337128951349 -0.12544198815992502 0.7186661361369436 0.3276575249351382 -0.3333338059666578 -0.5538652400113984 0.5884268972837011 0.06383495220881698 0.50890353731343 -0.5602363162919191 0.44200107807291045 -0.17970556114562103 0.14643239225169616 -0.33509884319527733 0.9812095298288609 0.6533219841478555 0.286361760393089 0.38811750858206584 1.1049431366577476 -1.9034040708752984 -0.01829546844694802 -0.2707212414353514 0.3762610357704371 -0.2858127575313599 0.11192546921190194 -0.5524956877104329 -0.35932620488295675 -0.3012770536564816 1.7165369367271537 0.0799014600737212 -2.027646259531638 0.22001782957554275 -0.4905236612981473 0.6022686145687286 -0.0014913084069822994 -0.38786279399335793 0.1962621808231431 0.14985175716557633 -1.715597279465061 1.8625061368339588 -1.1384458328584837 -1.335788779301563 -1.2095963822015134 -0.9514108222130754 1.8012128557206046 -0.25263845685657726 0.313760085661545 0.5055105841476344 0.9235128974462817 -0.6994551026307728 0.14734111210235626 -1.4732219901388228 -1.5824219866730744 0.14219418228701622 2.253139861060758 -0.652908852847083 0.7351400005819262 1.8451664603695814 -0.9191910488559377 -0.12161975972546757 0.506997868746775 0.9096705200635288 -0.26367089077094524 -0.6205230059824981 0.03775943658613262 0.5859788469671489 -0.7530649308439887 0.42438032826792194 -0.67839850426573 0.5738067620233154 -0.9398053165985045 -0.7072962865784045 0.7132144566438067 -0.4591139414982376 -0.13111629396469485 -0.43026644103115247 0.905951952630689 -1.0161643930093447 0.49985205584564424 -0.8369561631058695 -0.7284417497109105 0.38683664410079954 0.4000826373027882 -0.31818352268528727 -0.8406431082648319 0.5932058226321915 -0.09965063493605186 0.986495897488609 -0.31762404413934525 1.201146699530747 0.8281729804149679 0.3467449939237717 0.3668746531168476 1.9068310059863405 -1.389387308076445 1.3146568568981691 0.38037952614050496 -1.3054847995183085 -0.33793948003567936 -1.0446099081114781 1.678476939469753 -1.4123341700534078 0.9967233021301761 0.29796372314714975 -0.008174902513206524 1.5089290985579107 1.042743032852816 -1.2131438459352573 -0.5862039179521646 -0.7856604919252218 0.5271794260008611 1.1323545165525986 0.47730661961141624 -0.8454450794022854 -1.7731756126103908 0.4649039618056524 0.7736471517805054 -0.30031544283708433 -0.8868399027346956 -0.09302601595724375 0.28086229768953885 -1.8117625368167463 -0.08489589740002691 0.9606551535985303 0.6996730573857174 -0.7267900023613971 0.44407872359358314 0.619827351895613 -0.06072277919865294 0.8002814753808917 -1.7771686284574926 0.7495286498305137 0.04046409431924592 -0.1673862132820213 -0.5183947981983209 1.4670887590725645 1.1018796269155133 -0.2916847966001832 0.21852891846872016 -0.2398424063763047 -1.9558429497500722 1.1144821398473597 0.07197879014188466 -0.9728673110143946 -0.76584203303992 -0.3053400201603423 0.5523157037993316 0.34104960118261496 0.8210371286630511 -0.11926115819277987 -0.3678185700324627 -1.073498108070922 -0.7011850917879281 -0.4468846242872694 -0.17153471780421511 -0.1405627661541874 -0.8679415762500339 -0.663232644117601 0.9129106228375843 0.2019262598747319 1.0784474871097451 0.6013816286270752 0.1055722563424408 -0.1547968825862168 0.8813299194914876 0.05074468852440099 0.266474984601951 0.2211716415850604 -0.39401801957580734 0.1685711585958517 0.16684773839503378 -0.6094382565414953 -1.1004412494481568 0.07841834306829364 0.15369381502629414 -0.556057475330704 0.10238748529191091 -0.20657440266732258 0.5636278785838038 -0.6356234847561588 -0.009473699933640636 -0.005504532286920772 -0.4644041570745407 -0.2319899661237481 0.47474251906458564 -0.03122909263540694 -0.3908555869705806 0.45150270390841285 1.0715287777856333 -0.013396703206934937 0.0006687088071403558 -0.3232792857116918 -0.7425103946557925 -0.5921428636859848 -0.22364202591003646 -0.7179699288548961 -0.22895047125923015 -0.3442036938754361 1.783056860035612 -0.17798355017055803 0.24836247718309196 0.8524226041802503 -0.05801595278531868 0.541008077666616 0.9233481361094237 0.06626474507880568 -0.1393130707810485 1.0771166162395656 0.7737101166205662 0.16977963971700816 0.20190500537332173 -0.2977596632030392 0.1873956525869825 -0.050397859242502376 0.2708435473159595 0.013695622856716461 0.35686183344057376 0.009216124379113524 0.8395331924187185 0.46527230796481184 0.47439191574948386 0.0819042486689015 -0.16003982589700752 -1.6042494120948656 -0.30672891502256155 -1.184350090347045 -0.4015549141796788 -0.2839462645627701 0.10570795420082699 -0.7785679571839691 0.3186668974947819 -0.976738155349076 -0.6609829147672934 -0.40136577679534974 -0.5351738204288149 -0.9746216215519459 -0.16839733745945948 -1.1434680949775478 0.26669809964842583 -0.03815093297132058 0.2247413496331175 -0.2515109154870814 0.0841300451672281 -1.0856617077206128 -0.5747914409355206 -1.0719136296344896 1.3133422867035804 -0.6364572919400674 1.8221329147083782 -0.1287318538240815 -0.0420760073217713 0.04071232672514137 -0.4220264431487312 -0.6641500416707047 -1.0368892824271612 -0.6662277760004581 -1.0907471502278212 -0.7634762536377071 -0.08705152316079107 0.4153837490519464 -1.1558995198167448 -0.3218293967042359 -0.09492022826742146 -0.31449542505705486 -0.8442883097256736 -0.36097538834329973 -0.09247383873988961 0.03222991053536294 0.6716674231151435 -0.38279580265646534 -0.181472390782205 -0.6651365357684988 -0.19577158218339374 0.20835024440423958 -0.5117285971660585 -1.5159400755722439 1.008328402188166 0.15233187289390038 0.7510773524485544 0.4606612493576577 -0.18549399046690657 0.7587255295770828 0.8976234991396144 0.00456612110438316 0.3829680780219704 0.5590165841073286 0.6249176150292609 0.8156569513112196 -0.5578457016396716 -0.6739510895586523 -0.46631502932728686 -0.6827532752066001 -1.057363691591584 -0.11595601220149235 -1.0323414166137634 -0.9206573307414916 -0.4071729026322762 -0.5717258122381068 -1.1584000927154754 0.6817274412926592 0.28211910485887437 -0.6445563433725641 0.1694354550627122 -0.6441740329118862 -0.23035551655004013 -2.097244662654129 0.5859458720449311 0.391015903693651 0.11619498149831343 1.1459813738337878 -1.575698867000161 -0.28687596592544173 0.24437155743809383 -0.626661517695521 0.7030588746187694 0.16403494218488957 -0.5647042864608243 -0.0046021010724975175 1.4050255881341038 1.2400734142428402 -1.0875740773552713 -1.328053014788754 -1.8901116879016013 0.19782867144215552 3.0711242040334015 0.12296586635569645 -1.2300532547890242 0.40411175346512374 -0.8871183063782822 -0.44403963346650843 -0.514929383004083 -1.1448131939439325 0.4853148308276775 1.310687596651492 1.7528545123721462 -0.8636536677012132 0.44327657623968103 0.5508237130856447 0.687478144558694 -0.6981667243639775 0.24605129989890806 0.12082420514754035 1.2732366636002534 -1.1592402384642713 1.2423915528413985 -0.07671260168257807 -0.5267903916645746 0.02144913505636279 2.598881432108973 -0.4546120666609261 -0.5975884361024348 0.6032126141890971 0.9006648720860637 -0.441385351121985 -1.8008962987608008 1.5223604303736105 0.09115108643985312 0.6650509040961268 -0.44194474959505425 0.5312569795873212 0.7724409244123521 -1.2155875562033363 -0.20257024110473135 -0.3674403527803419 -0.9991923105404686 1.3496659562400146 -0.8491807246676497 0.7023882600352986 0.9297150130456538 0.27558988878060775 0.2590316447301081 1.375268150433991 0.7835849561637113 -0.2278184859632803 2.177683227569833 -1.224686159570717 1.0388096286203743 -2.5850228795167194 1.106638661755892 -2.805772802573403 -2.197950434622462 -0.0346519061514552 0.6661936253764323 -0.08750000942406128 -0.9139174059789205 -1.675709971609687 1.9566980916175125 0.8564478905116628 0.08582387835782855 1.3549414757662535 0.32611514342317727 0.042487813041315145 0.7265262288765929 -0.5348023862001747 0.7527399260444643 -1.0996110347054509 0.4420622805300423 0.9876834713457515 -0.19796319554168812 -0.6315846742354384 0.03158907917264916 0.7715211135083834 0.8234484458042819 -0.5406207191566892 -1.0055885091330654 -0.08565647182845915 -0.6472893321122308 0.05562571320556896 0.39653348499794133 -0.5490072435183759 -0.846969486932891 0.4226769373899336 -0.08398482500858973 -0.12558373570877024 0.6087333844416205 -0.6817858551171495 0.016589320047871108 1.2472230797769541 0.7293686524963365 -0.07131227579079011 -0.7143133868039272 0.4374721494520204 0.26970488645273893 0.6013694049199285 0.5025608538402545 0.014411812745576834 0.040326590295873224 0.10793668126044535 0.739726456119783 -0.03719907255785538 -1.738478200699508 0.3380788613133509 -0.4211212292454075 4.5621975036252295e-05 0.6190925254700939 0.24692274890228802 0.4858012264076795 1.0192152174872187 0.3640060727488713 -0.21689667404964483 -2.327882700098038 -1.2502143634831706 -0.22520008536868533 -0.1504855737664562 -0.16177076720677894 -0.5873531890190432 -0.3104245671630883 0.2999425380607979 0.6457202970635887 -0.687996795998487 -0.9962426158680113 -0.5273195982823672 -0.4483577928864111 0.4658852327823242 0.07801275817028636 0.10277030655135382 0.25084442271991314 0.35698472411710525 0.9228093377290398 0.5820622780363249 -0.502432902515973 -0.6076392973822927 -0.026412630494685976 1.3811650538737583 0.3878472301016895 0.40202427957142167 1.0413093743569704 0.6560793761834489 -0.4650610822577788 1.134110372246993 0.7886784926788997 -0.006830526311012025 0.5475577695754764 0.18030210185713388 0.7187963808915382 0.046453464538253025 0.16105608903775914 0.798457429754419 0.5737811008351282 -1.0318450024463457 -0.27860098989167975 -0.953401855093307 -0.10522377080814967 1.2713587133329445 0.06315793537333393 0.32448737150234686 0.620991261668043 0.06562061797229474 -0.02656595885739177 -0.5480570398337302 0.13469152046773075 -1.630721675635823 -0.2826790122383211 -1.5715763328871253 0.07323371230295139 -0.17826960169417522 -0.04334760420624469 -0.2194253341270003 0.22357085433618717 -0.5153816490859641 0.4615444548219829 -0.5700745452207518 0.24770770783851948 -0.21331225499525885 0.1258435827275049 0.08147365508640382 0.9687242725668 0.8095577896905937 0.28601646106826667 -1.4357626286280964 0.5575865476237788 -0.7209067650819736 0.06973616258605579 -0.10840521312226876 -0.5781593513482906 -1.3703813007219214 0.24569467824505264 -0.24395535367140322 0.10955353862726011 -0.6819736378997704 0.03270998746686347 -0.2628979654186087 -0.24647442742889258 0.4919455011982969 -0.2435817582242882 0.4693070286568657 -0.2720542375588921 -0.059447754985144596 0.7566544252609029 -0.006944568999776712 -1.087654921346925 -1.5735109395517666 -0.21762940012290174 -0.468562251572336 -1.0304842788743207 -2.0000014370870574 0.2794000102611417 -1.0771686572202102 -0.3827649715456395 -0.8018448668621472 0.4879872407185868 0.4294510878640287 0.45454190596697164 -0.08047685775119458 0.23633157115011888 -0.5420442094108842 0.7455370552698463 -0.010542614170023895 0.8167877064796445 -0.6571440042119601 -0.9269716188160618 -0.18472717552157306 -0.9586786856807489 -0.6763099551296744 -1.4050668611761248 0.17171909404801336 -1.7414060987632116 -1.021876842497024 -0.14477054713450446 0.8493310704596413 -0.052691127928817603 -0.08103871113342373 1.131181539963398 0.16825398989296836 -0.5045927349732208 -0.5686564904469182 1.6018541884078672 0.4708278181287045 1.789367722536714 1.0749094748271406 -0.16686868118657483 0.2325480598260196 -0.4730452367769437 -0.36955012335387827 -0.28279128137999576 0.54334614426019 0.5651387539771877 -0.2631303303418051 0.80365900508795 0.01389793929726593 0.34438594450443427 0.2568499660673475 1.0234103363803257 -0.31683183371515333 -2.5906603782515987 -0.3993626080250833 0.5979389608531978 0.15625459280455103 -0.20478211150861234 -0.153296091838679 -1.4974024093760856 -0.39486425033333333 -0.5058313575778212 -0.9778608315027215 0.7710123678928529 0.4200237407978701 -1.1597419893452006 0.036820887683990194 0.15748156571909125 -0.6608999251081336 -0.6151036142126817 -0.517357923510842 -1.0270653966842813 -0.9963120097027324 2.2898804334478884 0.826807015032653 0.17174972429914623 0.48941443861944756 -0.7309228556264311 -0.9142536549179954 0.24715730044554976 0.9597369535237772 -0.741443279391094 -2.4699997990733005 2.6355979295732768 -1.8613052213441772 -0.21887480730387016 -0.36798091164637514 0.17967127129723298 -0.6132309219725229 0.051559852041216214 -1.0133407371837886 -0.0673685342133425 1.2865983736870596 0.03094357137015123 -1.3459456152196299 -0.6014444447969391 0.43721870646173905 0.22813831780841645 0.24728669797774908 -0.4079590540112003 -1.1560960389095325 -1.9770683674013196 1.0279084347411354 -0.9282628367264785 1.1085076519401598 -0.4338415525128219 -0.6013207512156455 0.4215360177812808 0.5647508760884933 0.05500553706474247 -0.8113610941929791 0.8355856344845743 0.5983591932422451 0.49438661863192557 1.7886319492854237 -1.1838402643094423 0.40782959361730126 0.4358135616938748 0.7436288116506503 0.4957239589666134 0.7512503742132296 0.7915149013553939 -0.6559072959165394 0.10246015609143026 0.44607100969168473 1.6740100112164567 0.4321287089586724 -0.9854306649658447 0.19811890185100145 0.6757269343673054 1.1830997373946799 -0.45613847155107534 0.3212958346494198 0.13530063342564688 -0.16370129278597376 -1.108360786262886 -0.025074089754670847 -0.004659905670450038 -0.9829977770150402 -0.7792670831456553 -1.7100148417160903 0.9399568040689115 -0.45190697648474554 -2.341541900179893 0.030334592120342726 0.35010770349943937 0.15270659104281106 -0.5807032587284334 -1.5816402461592085 0.5414128845143019 -0.8374570636299623 -0.2236618933393822 -0.4141200329782655 0.5910252226239648 0.27986473869886674 0.9110173052859125 -0.27028083557013616 0.27387923805190084 0.3478448750421947 0.1900848067052633 -0.06693485040912528 -1.4211065143534343 -0.012060224874959682 -0.5047333956587209 0.3366687802417014 -0.816104756721575 0.1347098067132226 -0.5927758683203703 0.3228975963125251 -0.94642987269025 -0.5821531042103375 -0.48319392713342185 0.0005067752890821038 0.4375431522728029 -0.6544741648583062 -0.20958971020333755 -0.6243585103592608 -0.24848675618690447 0.59839849421149 1.4578240152041009 -1.380612294179489 0.10308735859389352 1.4651982270407269 0.06481890450217385 1.4151091955008783 0.6443185109478573 0.47008388738738555 1.0401352830268078 -0.42303626219790086 0.72188103655946 -0.21688180634959442 -0.9544252670661943 -0.04589121167988263 -0.2329239084225129 0.4793754224109424 0.8244504228752044 -0.7962681007683013 0.11940798901413065 -0.4588949109546513 -0.5688830996630847 -0.8139708607314381 -0.5831558009453307 -0.3154073699712578 -0.49362454927625216 0.264990562607237 -1.195040232797938 -0.1781252504952024 0.4764929814154061 0.147174372001022 0.44683098625522527 0.14833255900345876 0.6189117199933291 0.5100134229814467 0.7700932168514549 0.17336761970136783 0.18534011922050916 0.2403169983837024 1.4559365874334103 0.039825879865018524 -0.04745526342498568 -0.5956342942991963 0.09139309570948505 0.7438652901132644 0.5834549243323929 1.4267037224061387 0.7245897261878598 0.34583485927382346 0.40023692806239103 0.28813294672826334 -0.6130866616075417 -0.8257804324408936 -0.4612582185071958 0.053517293797228124 -0.4710176766759307 -0.558802263014472 -1.758426208451001 -0.46059241770790654 0.5287779420876516 -0.01049267752569776 0.4798973925315314 -0.2646871584579404 0.10514030928027457 0.7227772430310154 0.47349174359461854 0.3040687988481309 -0.43586248453655246 0.5745829804144992 0.5605660744978797 -0.03250916517228657 1.3459421256179533 -0.6047503811945563 0.397986919627495 -1.5924981658419466 -0.3758361948530437 -0.31406333798656555 0.04958056732307001 0.054050438828404136 0.7436273701670212 -1.5088675068954844 0.5769777269455729 -0.5131330498483702 0.08914910084203442 0.6577666570322839 0.2413842027324861 -0.5406635310431137 0.7749781048494991 0.0918033778693026 -0.10655803245732752 -0.6545966623860012 0.38905829348247484 -0.24372726846486584 0.2306190435262852 0.11620784138617779 -0.36570029420662425 -0.38830588730522025 0.771774976739452 -0.1394957012963426 0.48083328556730637 -1.1326748467622303 -0.7359567404910745 -0.822159414714857 -0.8396329342490707 -0.5718156565631166 -1.1021685184409489 -0.12235757066379177 -0.6234922699240535 -0.3213335696007661 0.05110152070797245 -0.741996319376632 -0.2761126440749367 -1.1447298545131708 -0.1615861713289098 -0.2644177559425109 -0.7495727984505676 -0.8261477180021656 0.822305130562528 -0.6357609139300046 -0.6083177313462211 0.7080050044105107 -0.1674944478390658 0.47356287933334495 0.03362019539139839 0.8881352044067422 -0.370076583196838 -0.833231054759308 1.4407957836420873 0.6556708459856364 0.6644303567031989 -0.6605616863160941 -2.1337981507598243 -0.515820995495352 -0.6120098269156837 -1.094338591863982 -0.7060390720273607 -0.5400071571479133 -1.9318017305255046 -0.7994798727162726 -0.10301542595781435 -0.019901024994302255 0.2953312605008217 0.05991316648543993 -0.7029623411436856 1.2403707771441144 -0.8915648244973254 -0.32594692421990784 0.1218146531261709 0.756719672577885 0.5871254857432204 0.6034722120235408 -1.329904369886646 -0.2524348438986024 -0.1767164489327903 0.01657969676607497 0.20555768572692046 1.141703601309367 1.7674231834156822 0.7688835204740934 0.734940001366686 0.4555314283482283 0.9178296314920545 -0.6391394536508088 -0.07541949250017513 1.0918223251737191 -2.5438244153744805 1.2645896731457782 0.3662017279082071 0.9776645944669282 0.07563086940762852 1.3726981651209644 0.07082100627225847 -0.07208162550968221 0.6045962820268415 -0.9830777325838514 -3.7318337118536626 -0.8849460314568013 -1.7551480536592055 1.240128295663358 -0.40696400588365894 -1.1483790591196426 -0.38811119253976556 0.771522573428954 1.006051828319281 0.000164844082312248 0.09323609167632979 -0.03378750051052631 -0.6023759388387865 -0.8399471515713502 0.9468781413828876 0.7265500746345406 -1.2388578462300937 -0.2509560229598355 1.8266182008053253 -0.049718108732809935 1.6110130942170162 -2.2440801557231107 -0.22930248435613634 -0.33391723991332306 0.32939402291176484 -0.2733987831011095 1.5266684203647227 1.2072352461489355 0.20694409404786188 1.369882650386351 0.895107673037762 -0.8971938815576727 0.518100413786439 0.16616201123218513 -0.4140349937961469 -0.3961988533915017 -1.9546955528522034 -0.6356860828113675 -0.1970774375042977 -0.3096744999772882 -1.2413941275220308 0.6676958150209055 -1.4662240661844501 -1.4320008427522282 -1.9723368117574074 0.680376851748716 -0.1907152198572009 -0.8474852846901869 1.7082049628118032 -0.6196485182210462 1.6688971245331201 0.9436090069258253 0.03216868669531486 -0.06630749609028778 1.2583653099279801 0.3454137778596409 1.2607589951262994 -1.236715828439235 -1.289396596126411 -0.6395908112759519 0.18550293797360987 1.0295730925595734 3.102515615653859 -0.3725976577592779 -1.0196817618048937 -0.07608051518829605 0.57872362538469 0.8211979421285307 0.47055544366262686 0.20320600322874277 1.1642515711594918 0.7265403034149698 2.226582713906343 -0.02145288269040902 1.1589772450877036 1.1577815575949555 1.46731459948526 -1.6663452539309078 0.09503622082836663 -0.0035223280150143976 -0.12498817769177269 -0.40881157534629575 1.111454012032021 -0.2404796402671356 1.5965084420142075 -0.22602926855286906 -0.606983309452943 -1.7039312198867125 0.61129698654415 -0.7649147503038038 0.4905001223998742 0.16452834103010147 0.13169932106079094 -0.4017900253320099 1.572549604998151 1.0221414250011494 -0.35168457304861844 -2.1278194291079022 -0.8128960815143662 0.00033297576712920137 -0.9851282615850805 0.7712427788276377 0.22537869147636874 -0.3988755502277153 -1.1540688908391337 -0.22525849888911056 -0.41614774054028686 -1.0940362464695468 -0.13069001217961063 -0.2789244649251897 0.6624078459805451 -0.9468348045533431 -0.5049561509153622 0.3030155908314886 0.8260267218233286 0.39728931348928365 -0.904736142068724 -0.06639399491530325 -0.08312724094950717 0.9941166448030888 0.013460657829363915 0.11644348440282273 0.18096056785981343 0.4384333976230167 0.8212846594886605 0.1442077146406532 1.0477259453777124 -0.1027602396206797 0.383304493386994 0.657531264742686 0.49348941658402007 -0.09423440846566607 -0.21279196195010291 0.6040146070801463 -0.5931516690117471 1.1324735689458736 -1.8340775142380699 -0.17734121950029538 0.04328726225230698 1.0600745493897288 0.29990184753467036 0.7784543281685424 0.4709038231803969 -0.09751720511690203 0.7395184018200358 0.3404063544103915 -0.09618850305199529 0.3569210725721852 -0.14493874232155143 0.38377750926240856 0.14735050367455424 -0.8836063610200486 -0.18321190615694077 0.17365123386945577 0.08117456268724829 -0.5829384871868559 -0.30736544657600673 -0.5016037429322422 -0.05364682202641477 -0.07957891692359714 0.29726819520595155 -0.10663887696353494 -1.6689825374257103 -0.02183114585652456 -1.6042101797821922 -1.3666891220939046 0.7020470405115881 0.4897975026971516 0.416496264766353 -0.2967829248271607 0.5103793399964729 0.3180719105971303 -0.46210231062001783 0.7396837490951986 0.06666734547239594 -0.5043408010201746 0.5381495906571778 0.23420074121503814 0.7599902125979323 0.7128981440067176 -0.0294836476972617 -0.06534486590656759 0.3341573394115932 0.10269294644386666 0.4864556866758473 -0.76528172211647 0.4973153174587739 -0.2515743342691032 -0.21130997455746556 0.48943259574613796 -0.15367199971973863 0.18987598739710573 0.30202306863058814 0.7101522142216843 0.1277300906022798 -0.3371308688181974 0.4411962677983856 -0.2022267064592337 0.2901953494603324 0.25310802593069637 -0.4324140165033275 0.06037402689700025 0.467915099478797 0.17856103317194044 -0.07099873256016251 0.5355365913794032 1.2927270062929836 0.4380038820027807 0.4841236451057027 0.7065286985948612 0.16907076512907349 -0.13391539903845967 0.1903987828416659 0.09741390012718135 1.4263227833940366 -0.08443374778473185 -1.192450246093457 -0.6446401466710625 -0.11947916788663962 0.15823980877442348 -0.3771382347323528 -0.4412795806239003 -0.2851314383226206 -0.2835892583746317 -0.23554387251391565 0.015346206841309412 -0.7113257070098601 0.026552085348056576 0.32553409536459066 0.03378789262875 0.5245818795939323 0.45852731712514383 -0.8260438412690836 0.28863207717864314 0.677888399728622 -1.220430993843653 1.327420696817081 -0.8366707077919846 -0.5503985996211556 -0.03185729044998824 -0.4523623069510041 -0.9077859202033057 0.8491505683064792 0.1479112992393136 -0.42812262381253136 -0.3809467731431729 -2.2660251049660296 -0.1756951839838912 -0.9315192393159437 0.6921184885082925 -0.8032070609718488 0.8943332103433874 1.0229382212020641 -0.53276966241816 -0.8699229859208197 0.6287976833432035 -0.03874120439868146 0.7462129368272234 -1.0617317924422338 0.09274305733866416 -0.4749145300952541 0.057508919824606756 -0.3008635927452789 0.41185277633765865 2.4410334345013633 1.4195998993435934 -0.9246044885367366 0.4729582821425392 -0.9405146874730986 0.348497500522409 -0.4212579736923098 2.158389293626647 -0.34391526002691214 1.1055142794811288 0.8532327573021136 0.028017139738687614 0.3340753766713931 1.4347788819288556 -0.3521315534116299 -0.5894541943623197 -2.30297864304554 1.370791639518793 0.923450982185678 1.004088771387426 -2.0417703106535887 -0.12806032408766177 0.39686391056476544 -0.42683620899071617 -0.825394272678508 -1.543959252461489 -2.6429655600621325 -1.8908856691968783 -1.0121563173175392 -1.353802462167015 0.25518385706214525 -1.28725552200955 1.3733816366752551 2.757182995710093 -0.11256748740957606 -1.757345304223912 -0.7206797323681953 -0.9858101264743478 0.03747054469057256 -1.483805739576811 1.1152556171118089 -0.12726991598999168 -0.7497787479774177 0.029674716966863843 -0.18095464186877086 -0.4076178343755514 -1.5394249129287687 -0.13950188903050664 0.5110032266455643 2.566327530879573 0.34595426206828744 -0.47525707424102615 -1.0279522139391126 0.6949748427799213 -0.08457808160470742 1.8638298699250522 -3.119452618441209 -0.3688661487471378 -0.2862182125034665 -0.6713996990167487 0.7125676440238342 -1.730579715472765 0.5513558276488496 0.29670612905972643 1.2670380575051263 1.4315576730668076 0.7402481814622534 -1.1545351400250548 -1.4703752113111972 0.21417414514282743 1.1987897471734883 2.0868159729387608 -0.664082198873353 -0.3896232388947338 -2.531699211768896 1.4340106104965689 0.10417938438520694 0.6487892353837 -0.3457100978988753 0.12286422830911325 0.2067478555485637 0.5839391998852843 0.875684408034698 -0.766164914595991 -0.9204532788746193 -0.22688594321482192 -0.03228387422532236 -0.9406757552239267 -0.7529709121249386 -0.11160401478853758 0.9362784046915255 1.2897244591386439 0.1640543138235098 0.7382323460274595 0.13347894686243436 1.6193769720604074 0.841864021316836 -0.06819871631185806 0.18567925566925064 0.5711110169927526 0.7329341438453048 -0.194713945158225 1.091610724911866 -1.7509015360770401 -2.4770543233089977 -0.2848118281466655 -0.39219556601624156 0.2618392753266807 -0.46097676149497696 -0.27814479347651383 -0.45658319917297896 0.5205432242757249 -1.507574438786242 0.504209008139798 0.05522545405941912 0.38440145025970685 0.2281767242752089 0.6910242247874171 0.5989967519030858 1.0518740683632988 1.702329537650102 0.48374839641334016 -1.2786279469922632 0.11286168473960574 -1.2208256795335466 -0.14242450111256552 -1.1329909431111866 -0.7124587730925815 -0.33537058558576666 -1.7522349719322579 -1.3106376146323355 0.3137417232212728 1.6881465144648218 -0.4096679943078455 0.21036172350465657 0.2810896352351362 0.3090473095805436 0.4109443166162447 0.04996879209114704 -0.19457522959501866 -0.05721729396305948 0.6745919263523618 -0.8618778930990254 -0.4047436767572848 -0.1280425205262605 0.06718597998382264 -0.02457857701355581 0.5692630603506125 0.24957510981717643 -0.4633214122876733 0.33100975652128495 -0.7050170903569516 -0.0459555497799464 0.5093592151466652 0.47579106842607904 0.4972044636644632 0.8954701200425097 0.8954184372936763 0.019912216817819364 0.5401300885825989 -0.7736720207593797 -0.020729925956292843 -0.8394543845458944 -0.3832798312801075 -0.5870689750520696 -0.01054823349831637 -0.13926294649092255 0.7412512863045357 -0.6872837544539837 0.11817077640909164 0.9684402977029989 0.699781027650792 -0.24015499937284907 -0.40022014474039763 0.01559746737486981 -0.07048475480027154 -0.22812096906706752 -0.16189989057250098 -0.8184664835857458 -0.0874112891279487 -1.558772191401358 0.20226797358033444 -0.5626765267677974 -0.6071682462896313 -0.527869188177881 -1.0580454833364994 -0.6698055302235131 -0.8263641379179695 -1.0565064399794624 -0.22829151362878372 0.24481943787197188 -2.167726184933824 0.5816168568140552 0.24265900165121784 0.07914439557944139 0.5054770238296293 0.03658355650729535 -0.16293720420491656 -0.47784618416556934 0.340750933127864 -0.5227268407794123 0.30745714845074673 0.8045455806107426 -0.14069625944434033 0.1295613830332873 -0.06174754173513183 -0.08410711588277957 0.12117494600439127 -0.2798540680290293 0.13827080334273764 0.28478962196692553 -2.336289539491744 -0.44551239655712754 -0.22390449602653298 -0.1502166687155628 0.4314001387352526 -0.32186361453560985 0.2257862178432683 0.13816579068918416 -0.02501011707712292 -0.12457672295030979 0.24498688374818356 0.578135168473525 -0.04730427135145721 0.4260017988819648 0.6853660501479203 -0.0559793946948881 -0.3263001672007785 0.973213852734877 0.5282345921715559 -0.7833736857670899 0.4538958916000242 0.5872541261146146 0.9260568920226618 0.678961187007951 0.5168621783842244 0.2090648172915943 0.5421664603330125 0.6818599694178737 0.40765847981076664 1.4943482592648432 -0.1945791097918494 -0.6749803246592532 -0.20697460214324118 -0.381262954560713 0.9546271433162975 -0.6246764902029461 0.12939568970555143 1.5471096599617709 0.12919745705371058 -0.20054074924100268 0.42304258331546035 -1.7889777876582742 0.38471713770263843 -0.7497242500668279 0.004438623548438675 -0.21322759784902834 -0.14683972997631448 -0.3718182295575311 -0.8393994570772007 -0.33969529930351233 1.1134770883815033 0.5189621771674225 -0.08751008951000928 0.5617800498441385 0.1908445617762294 0.49534494308370663 0.29357495176488274 -0.9796225560081868 0.7320745116538127 -0.8164630528513299 -0.16656578460820237 -0.3147006614323733 0.15152608048473978 0.0771523394451922 0.04108986927864977 0.9895708993707171 0.9152111656650961 0.767067706908953 -0.643642587978283 -0.8643340570834191 0.642043944315801 -0.7311066587790248 0.26462871056381615 1.0118619099824921 0.5571569416231852 1.3715995428535048 0.13043518901865728 0.6546644145350771 -0.4433937603619691 -3.242692170355366 0.4641621492650171 -1.157329128054209 -0.08859867371911298 -0.7287336212779605 -1.4189394203366992 -0.6675337886783645 -0.2669454522224199 -1.8553138236726179 -1.6397639963957427 2.105056485331073 0.38769316861180736 -0.47558735635950494 0.9573663213611976 -1.0763983395855057 0.7357682196633152 -1.1685464803268903 0.43592731411200925 -0.5503989620156292 1.4023980872995316 0.6819616272382583 -0.5490981019184227 -1.8179423883524433 1.3485357542599878 0.05915889594361749 0.47453745269524683 -1.422164202140986 -0.2097235190700334 -0.40536188692548536 -1.011436834588816 -0.8291600157495165 -0.30576543245118964 1.497638698560718 2.33771980548216 -1.562365401306954 1.1720307046353715 -0.04723241898672015 -0.8161769353526145 1.0278306705270324 0.6570064208095626 1.0258585245041578 1.3035598342961703 -1.94813676972567 -0.2380510189576938 -0.46559889719393505 -0.17980810396648855 -1.964116398898904 0.4171826128399082 0.07251097116846808 -2.9952124369870057 0.13911391950185706 1.0731153446975032 0.034589798130480444 -0.43293222862276554 0.1429754089661541 0.9333311954515534 0.44697838992142824 -0.9148469856837891 -0.1912528060730081 -1.5356736214740587 0.9160801190402341 -2.3495405814158667 -1.2140355334164596 1.6227705753209203 0.4735278241830176 -0.47108594265452747 -0.5720270143103388 -2.236997643409015 -0.17703048594837648 -2.0977392224439115 -0.008367081394901577 -2.870763282786188 -2.6080168894061577 0.0062021599721590066 -0.39110707764861424 -0.9800449993859318 -0.14643675401579237 1.7801355416537041 0.7518917844414637 1.0776551173886053 1.1420933870575842 0.5741065084172077 -1.151198465017294 0.6252579359914585 0.8222757657590615 0.8266693843388185 0.23748390775302622 -0.16767444341890492 0.0636348919610003 -0.1051240234049029 -1.5060775894363079 0.9476663762537917 1.5575549470823042 1.8428414942684999 1.0847530879391778 1.242215162085769 -0.4118294010999739 -0.6417343269810757 1.5153553664588668 -0.021867445992629762 1.2500185851888925 -0.4264195893877926 -1.4236664248795885 1.0761945766751329 0.6579825968392908 1.190853173519915 0.7797419440230074 1.1788199926433311 0.01600990036715338 0.1341849958653663 0.5492652257324253 0.6562658670831878 -0.34732600145143183 -1.0915872690600048 -1.0065395124971468 -0.18304052476361832 -0.48351242715320875 0.05938868471599431 -0.5806002628826699 -0.3930510274670756 -0.6452895659189051 0.2830171074014047 -0.7153754431255531 0.339114547582151 -0.6997609018840696 0.33770324697216897 -0.26095379964552856 0.32137265806681636 -0.27354909233359603 -0.1606053410403494 0.4764030558549859 0.1446598201775603 -0.38673587231221884 0.31572881896790567 -0.18109226404970954 0.11278105619387437 0.40404856100690667 0.012063534745810633 -0.7130513556270055 0.25208719984114347 -1.148299141304949 1.143952265705895 -1.6620162998535315 -0.4799943421378701 -0.6022318612803385 0.0480975366785154 -0.20459512966240723 -0.10956779540734493 -0.08217561203199945 -0.6721940214676004 -0.9350137184376194 -1.0305422280976253 -0.3815253764723327 -0.13713430343324232 -0.2514384535999433 0.28909233301003984 -0.3673122630874702 -0.42593073648605806 -0.41505933909966464 -0.2862697692437716 -0.039031815418853186 0.06583753568370387 0.02127382441147666 -0.35615998523295783 -0.055960138534600586 -0.3376637932229409 0.07772856970242509 0.33676656116379744 -1.1484521581442735 0.008118598157126428 -1.1839644707143446 -0.11702410631114289 1.097816070761745 0.7080328282330922 0.4125140627946436 0.22621352186080382 0.4351106549463485 0.7824174409979563 0.2791986286127475 0.8341398711240287 -0.40524620717516213 -1.8525024227606972 0.8635929338060653 0.10754742611692286 0.4061423448540002 0.2589160550054014 -0.1491418377299298 0.6277230228482368 -0.15530165739989757 0.6625862848790687 0.18305504879246112 -0.7297757060597038 -0.8983933152089051 -0.4726234279925497 -0.6005006647726181 -0.384074040590352 -1.2146600245790027 -0.8660471944386617 -0.026804470478525022 -0.6919886637563227 -0.02309842395364036 -0.6885303973413457 1.201431851022093 0.0696324610377367 0.05315032623754916 0.6810749245373218 0.10207314870625817 -0.016417237892422294 -1.1250082241764958 -0.061357681197380276 -1.085814177249323 0.6126461115732947 0.18053018354544942 0.33790641987512016 0.6167926352201838 1.1473826580816686 0.21298997052450255 0.6119396287410755 1.5092863014074303 0.4319592770161679 0.9220959261718314 -0.08485281621980378 -0.8568731174884385 -0.18519875914292075 -0.055554127043724366 0.46451818224129954 0.9577452607489022 0.4702365593069629 0.7645433929606018 0.30326939524845414 -0.37397374576237763 -0.1819152564129984 -1.566491846544595 0.052144324579621315 -0.3131109827184881 -0.5290534726318096 -0.29728691763053805 -0.8162877951784145 -0.6750685406587568 -0.3690068713696841 -1.0674345177832338 -0.1281867781465725 -0.6736006197986437 -0.9938727244245698 0.6837353345373866 -0.42205543068279416 -0.06323365846652815 0.026489469505951893 0.32654739098386226 -0.36777278032563215 0.3138964387780597 -0.5312524245891243 -0.4091325477339062 -0.32356769771181326 -0.5872917542032215 -0.9468198491546109 -0.48751747331489204 0.003748930304490636 0.14724826468359906 -0.949588995186664 -0.39419102484419916 0.21531640545869077 -1.5485164479086244 -1.1351482680898015 0.739287643960572 0.9981924590812966 -1.109331134624006 -0.9176072490447761 0.043251389155801366 0.316257531705915 -0.6629460885246546 0.5617601704901147 1.0084913234749142 -0.30482979754888556 -0.177186482821123 -0.8256238049731928 -0.4929606680094643 0.5495540156042463 0.42849817592273526 -0.45397089285003595 -1.1611111570407417 0.5008192534085588 -1.1574405372241872 0.703587385665107 0.8258712966862517 -0.6713250973159869 1.7690737482598298 0.8008447390152754 -0.14599391907313403 -0.39683640675930476 -0.313273100698966 0.33047005078978775 -0.3360784079307904 1.3598479060839537 0.022800767034594455 -0.6728882752233295 -1.279859333236628 0.7858343968138268 -0.944757629594162 1.1104230276077323 -0.8649681774044103 -1.0535364404244678 0.13115191987045188 1.9003211930580362 -0.10059758877045445 1.1701280778334855 0.13472958031902058 -0.5913236501444654 -1.630253518047647 -1.2573929967500521 0.11082384393960762 -2.0236682372479473 1.1808020010381435 0.20391726240873226 -1.409833634562674 -0.17052791122045616 -1.577731591268868 -0.0304948986717426 1.41741657786351 -0.6399094046262083 0.7051071056355245 0.9045513148299141 -0.37890057519792386 0.004357740160512507 0.3344190260877768 -0.15983645067084512 0.10470394135987114 0.668691239411704 0.6868887379606027 -1.671544248152061 1.6991978193220703 -0.7735980006082765 -1.433386753853695 -0.5055827749396143 0.5146287818045964 0.796828607841224 -0.18324752564581054 -0.6651653716243577 -1.6637815420227549 -0.006661124229572229 -0.5780598347748628 -0.5103275058312584 -0.5879216252514345 -0.20727910968755953 -0.5275345050649415 1.1630546284185739 -0.6217822240682668 -0.3635686920322851 0.6310436072549787 0.180364353349032 -1.6476254248251927 -0.5263276686867419 -0.648509819683903 1.8190040530905485 -0.5955131842032403 -0.1504177526047372 -0.8016673674726321 -0.9123485005380718 -1.7693465046743375 -1.5005494951842278 -0.12521079298460042 0.9216600915545763 -2.0706143014629976 0.5104514147811196 1.5527196436786794 -0.8583206397136196 -0.1224067132140935 -2.406687487913164 0.43822924660740237 -1.149224429624949 0.7467699328777684 0.2162888924421617 -0.8823248495582579 -0.3256434763834278 -0.627764106477421 -1.2651317667083375 0.09921088102434596 0.6690329393754884 -1.2961983656350247 -0.6302586101899161 0.44017517221671704 0.639988936209033 -0.7547341107104768 0.5115240660184613 -0.5277235018845037 -0.4212277870847355 -0.5277219424125209 0.16592371398825945 0.22196864733823007 -0.04677650916299343 -0.758525688176107 -0.7409389882878893 -0.14788279328635387 -0.1579872064539595 -0.40144367362132405 -0.26054240786779637 -1.2352555346193466 -0.43100257266634345 -0.5545036924439836 -0.46811133738694133 -0.7921828364107482 0.49655423572154217 0.05842585601725094 -0.659053702547624 -1.2532170899758135 0.2337644047501711 -0.4299677701765137 0.020830362173182508 -0.013636773217179881 -0.5005889573176792 -0.8957968742774619 0.41730876573387055 0.5200443922220567 0.24994344053700368 0.13076600755744766 0.5894030172054593 -0.7892153051595692 0.6245580050507717 0.3663829736445515 -0.0005978179544786067 0.2089424441399625 0.055554416078917146 0.01704480842734677 0.3989637185231808 -0.03872117045297046 -0.25772516128199136 0.155516087801242 0.2737063140394564 -0.2954349734018219 0.44789553847608726 -0.09940921755483047 0.7950268142120493 0.453422951975817 0.31334787581128215 0.19825976316560404 0.22356674756319866 0.04906834090079906 1.3408418501778467 -0.775611337049619 0.08846377273632669 -0.37586730495892096 -0.8080286260130617 -0.6779590102926818 0.11100886884410012 -0.5045826580043294 0.5151725586907557 -0.3637303321943845 -0.4453106391178849 -0.4066991565949586 0.25101962473025885 -0.05593218046894774 -0.9189548817435654 0.24958458187824015 0.5161373646650613 0.707297846208069 -0.1657178114960732 0.14744722601381668 -0.1087012595176492 0.3424403072968114 0.26507592791785817 -0.39799995849442255 -1.4103611544898356 0.44912569481123854 -0.1516086266542472 -0.517143496894324 -0.3172968663232 -0.9625341440802782 -0.4099562887463991 -1.2847455271603068 -0.2826455846512119 -1.3605700649509629 0.6133194887721363 -0.21108818102000368 0.043652100200081846 0.27427372523093974 1.1633936497614676 0.4778394257700315 0.36701317924742394 0.6637161974152889 0.3424959836877489 -0.8824056004684457 -0.8025140177507872 0.5089520872644782 -0.01614526841148231 -0.4451076176633709 0.15462066087035728 -0.6308615492003787 -0.05289362772367086 0.42815136301350365 0.17466749730358738 0.13627895538386509 0.1340649922496811 -2.173214227067211 0.6896340660809291 -0.35431123942691295 0.15594096576995214 -0.2430363711676201 -0.5082810782131699 0.24003194335961173 -0.04453472406352083 -1.055685168721266 0.11850263585267268 -0.787829890803815 -0.03999795139627617 0.4255713271093313 -0.026434260176677434 -0.5564504931273238 -0.03530200714820388 -0.27377969116326795 -0.08926908927123224 -0.03508962873092089 0.17675676332565896 -0.9449667616429853 0.7970837160618791 1.1270231958606594 0.9142190212470954 0.8027073249986901 1.1117732186489502 0.9643486311977959 0.08635351695451066 -1.2164855219309623 0.33098188622544494 -0.23678741347393303 -0.30332494227211004 -0.10999016618121472 0.6016304685347252 -0.015471587438862766 -0.5349755096468286 0.017311074118244226 -0.5944497642816695 -1.1830032088699927 0.33833179949877035 0.13124559240665212 1.0016913123635203 0.49271868134148933 0.08752032354821485 0.1423417139216721 0.5085160955042283 0.39495695075229853 0.02877436613294776 -1.0217298852388055 0.5403014038547833 0.46974891576466715 0.8720048449967035 -0.11927528442165036 0.37101616811849647 1.2451966357744872 0.7511910230154127 0.27014651329632006 -0.9344451738376772 -0.9652508580617091 -0.05718780586389654 -0.8434866959330733 0.6855933454108921 1.251281077130676 0.08703725869429493 0.652919392352339 -0.4007699700704012 0.09973279786857181 0.16026920282234758 -0.1312774417523963 0.8323629311998102 -1.0978585243620813 0.3798798827441909 1.10061591204294 -1.1061388109400043 -0.023662705780202686 -1.194502321598191 -2.0555125957655 -0.2710014355774336 -2.3766577162732405 -0.2751790201726511 2.2623268934481606 1.371091700535395 -1.0787033025762314 -0.15083835399805937 -1.101927035666215 1.5177901467361499 -0.708366623993079 -1.1682136715196563 -0.7270003937380738 -0.23290969574789655 0.2536832211814059 2.3487890434960748 1.0150435671851936 -0.5987910195980923 -1.7295936807374543 -1.2008132492608492 1.1471343492008257 0.5038512904184133 0.4123369621712573 -1.1313984313572703 -1.476680983949225 -0.29940520894173756 -1.6708211186103978 0.07807926236966864 0.19396589132636471 0.5297128671132171 0.16634609767944328 -1.0232905890387896 1.1875243623799712 0.7444814729073472 0.0042200856919044 0.44479820404151604 0.6038206312818365 0.23418767207980995 0.49573959091300146 -1.2734232068188889 -2.0408541672665366 0.1174109371740929 0.4354557294802681 0.42074588198986024 -0.3215733161663065 -0.1689860912297966 1.3924493001333338 -1.1435421114796773 0.3749560499039456 -0.5206327647020386 -0.5515632647317735 0.2844789962301676 0.8063081873023437 -0.7109051563083196 0.5613282543251688 0.750840304138546 1.068279286060521 0.004105813650223006 -0.7376973338571805 -2.339210314023481 0.15590282551684367 0.5880075467821317 0.1428601852591566 -1.743917752636669 0.7712662736410464 -0.38854933446333645 0.336303639110053 -1.197250045995435 0.5996928821263611 -0.9049689814072517 -0.5020389209529161 -0.21354401256186661 -0.811290902262639 -0.3588974403135978 0.37819943504834497 0.23906240652669744 0.2692445441654327 -0.11174349753983392 0.27460216702948365 -0.06163235617862602 0.001606655406311209 0.3063815886441446 0.10424403905668314 0.8752940094173768 -1.1022139852028772 0.3360141649613446 0.9901895995370277 0.2539549585659744 0.23667534148980057 -0.4214194308871996 0.08614082987776518 0.07006516128825396 0.20016843289924438 0.5240349633886479 -0.737791320492463 0.5801422204272265 -0.09275413066807014 0.053834114349254905 1.0915124038410249 0.5012129019169974 -0.3720928922202759 -0.19690883461579897 -1.923216490056543 0.6551054375110157 0.16139122494507374 0.10877290056013691 0.5999854827874815 0.41359074812864327 -0.1993132566992665 0.04006902684954852 0.2503439436973087 0.45892635140268345 0.6824380021627522 -0.34856633294115685 -0.002988748836334988 0.34686417355728877 -0.25992962101909284 0.4483691206626433 -0.059332187447318815 0.7497278938767667 0.014412678100484118 0.20651071721071299 -0.9617736933344155 1.153081171791187 0.28736518979263126 0.7904203277959413 -0.05202446930429001 0.2324928505276105 0.44767614123506316 0.8617268733014867 0.05535119489975875 0.9752509999359543 -0.06927982192411519 0.7674993079958475 -0.04480361058637031 0.6831117954642032 -0.5060730583544651 0.9534979698843922 -0.17529268070051782 1.2308524594479555 -0.07350887474779925 0.10807880075246087 -1.4814217136974084 -0.03895465496669042 -0.4999554638837011 0.29252996579159873 -0.5520451020816532 -0.2368477624743373 -0.2245125299524733 1.1425097019516885 -0.024275782548461557 0.2563041246099058 -0.5230630260429384 0.09620729424269647 0.14653406094485041 0.12281667830586855 -0.2348118672016056 -0.10940634303987037 -0.7297330363566729 -0.37301819108096235 0.2662301953303803 0.11879422813633757 -0.8497287658006221 -1.1933862326118403 0.6750548011183283 0.4903358192893291 -0.36119827070437743 0.3866093324965443 -0.5862155805145407 0.341511037967681 -0.10669611345220813 0.18539164465796845 0.19442361939972358 -0.22433260878675493 0.8061916191326024 -0.11043196624885146 -0.28844709542681224 0.5087267492397336 -0.2881959942803726 0.43534935751026815 0.4234587098661244 0.10584519078789469 -0.7700169837361923 -0.6128446068617159 0.12306249132133727 0.38541568900413953 -0.5347007303739569 0.23650665640130147 -0.0518436472740082 -0.18383932359105995 0.08465879956392583 -0.18318032146016985 -0.35027362893540837 -0.02377530730765368 0.18248203466585902 0.4953194165582351 0.552044446936729 0.9472628232671518 0.6094610474453519 0.3599053025363981 0.445385244660123 0.7458719701385411 0.47764826048345405 0.4162045089863214 -1.5383206673327057 -0.5019397039705428 0.3291142961418266 0.3919656302426781 0.3359676929061823 0.28517320752979775 -0.39519981433666446 -0.15580154159822115 -1.1091331587990318 -0.016641915211153577 1.1613642712419745 0.31651231372048527 0.26072023148497153 0.43600543136917946 0.7204651273699538 0.27007737911036556 0.9554260432296791 -0.4502689911769387 -0.3881602631123256 0.25125711466986744 -1.5310803968288862 -0.5953877162463984 -0.14313494331677618 -0.7544281199309245 -0.5231791472381895 -0.0857253417504277 -1.3324214785291233 -0.385429741369112 0.7804621493023337 0.6942624592257629 0.5241642189951148 0.35346454877920125 0.23779539596410887 -0.17395316969876914 0.5914650499900815 0.44775115973012336 0.7708979770990508 0.1966195294286387 -1.593455988431458 -0.6200812364404454 -1.8297812679997552 -0.9874572353353852 -0.7737816269480274 0.18583544056622991 -0.31758513512792286 -0.5905616063593243 -0.9405786512226055 -0.5446475849444217 -2.1645624908531937 0.20609865303917718 1.4158818275202103 0.16210951101861093 0.4975156818352275 -0.6208739963937399 -0.39776398547668823 0.33488659779272073 -0.08383272499830705 0.15879879573764363 -0.4015582933748174 -1.3949767931044152 -0.8365511142347654 -1.2972994196198868 -0.7844960659939029 -0.31331441110457947 -0.5568749244008435 -0.8255279982782177 -1.3161079813554972 0.052123815339163916 0.5666580823501278 0.13813227996899466 -1.1864642367299907 0.1363928066112686 0.023122498300498097 -1.1560451935659355 -0.3767322189224833 1.1068355641946175 1.0084683861751231 0.41544327866372316 0.0038234767088451086 0.20795068213140777 -1.3012268943491632 3.180844124091813 -1.5430729857404881 -0.06383672261971209 -0.6079370071716242 1.0436217863704207 -0.09371000292991356 -0.9411456844074372 -0.5173015170976004 -1.039546362421761 0.5718150343590025 -0.7147811215850138 -0.007072540470140249 -1.1198209550476799 -2.0692151483989525 -2.096344221906101 -0.7446564025224487 -1.761950306927814 -0.6255014404258784 -0.18025609996794867 2.2067754612744075 -0.11767507381041302 -2.184044544123539 2.024269843668428 -0.21972287381164196 -1.3177339108893442 0.9604400063311879 2.9307047059702622 0.13562609627551497 -0.7766834366438757 0.034228081693705184 -1.9020792091370466 0.4107812810968227 0.8890812273467129 1.2006968283353912 1.8568269136934545 -0.0823741087719458 -0.5337678064508603 -0.08197291653773758 -0.9731152278577501 -0.3966335317369367 -1.1433840593770257 -1.0223213743234858 1.433825371725911 0.5146440963253184 0.90907548472018 